{"learner":{"attributes":{"scikit_learn":"{\"_estimator_type\": \"regressor\"}"},"feature_names":["day_of_week","month","year","day_of_year","week_of_year","is_weekend","weather_index","is_holiday","is_spring_break","is_off_peak_workday","is_holiday_exact_day","days_to_nearest_holiday","weather_lag_1","is_long_weekend","lag_7","lag_364","flight_lag_1","flight_ma_7"],"feature_types":["int","int","int","int","int","int","int","int","int","int","int","int","float","int","float","float","float","float"],"gradient_booster":{"model":{"cats":{"enc":[],"feature_segments":[],"sorted_idx":[]},"gbtree_model_param":{"num_parallel_tree":"1","num_trees":"1200"},"iteration_indptr":[0,1,2,3,4,5,6,7,8,9,10,11,12,13,14,15,16,17,18,19,20,21,22,23,24,25,26,27,28,29,30,31,32,33,34,35,36,37,38,39,40,41,42,43,44,45,46,47,48,49,50,51,52,53,54,55,56,57,58,59,60,61,62,63,64,65,66,67,68,69,70,71,72,73,74,75,76,77,78,79,80,81,82,83,84,85,86,87,88,89,90,91,92,93,94,95,96,97,98,99,100,101,102,103,104,105,106,107,108,109,110,111,112,113,114,115,116,117,118,119,120,121,122,123,124,125,126,127,128,129,130,131,132,133,134,135,136,137,138,139,140,141,142,143,144,145,146,147,148,149,150,151,152,153,154,155,156,157,158,159,160,161,162,163,164,165,166,167,168,169,170,171,172,173,174,175,176,177,178,179,180,181,182,183,184,185,186,187,188,189,190,191,192,193,194,195,196,197,198,199,200,201,202,203,204,205,206,207,208,209,210,211,212,213,214,215,216,217,218,219,220,221,222,223,224,225,226,227,228,229,230,231,232,233,234,235,236,237,238,239,240,241,242,243,244,245,246,247,248,249,250,251,252,253,254,255,256,257,258,259,260,261,262,263,264,265,266,267,268,269,270,271,272,273,274,275,276,277,278,279,280,281,282,283,284,285,286,287,288,289,290,291,292,293,294,295,296,297,298,299,300,301,302,303,304,305,306,307,308,309,310,311,312,313,314,315,316,317,318,319,320,321,322,323,324,325,326,327,328,329,330,331,332,333,334,335,336,337,338,339,340,341,342,343,344,345,346,347,348,349,350,351,352,353,354,355,356,357,358,359,360,361,362,363,364,365,366,367,368,369,370,371,372,373,374,375,376,377,378,379,380,381,382,383,384,385,386,387,388,389,390,391,392,393,394,395,396,397,398,399,400,401,402,403,404,405,406,407,408,409,410,411,412,413,414,415,416,417,418,419,420,421,422,423,424,425,426,427,428,429,430,431,432,433,434,435,436,437,438,439,440,441,442,443,444,445,446,447,448,449,450,451,452,453,454,455,456,457,458,459,460,461,462,463,464,465,466,467,468,469,470,471,472,473,474,475,476,477,478,479,480,481,482,483,484,485,486,487,488,489,490,491,492,493,494,495,496,497,498,499,500,501,502,503,504,505,506,507,508,509,510,511,512,513,514,515,516,517,518,519,520,521,522,523,524,525,526,527,528,529,530,531,532,533,534,535,536,537,538,539,540,541,542,543,544,545,546,547,548,549,550,551,552,553,554,555,556,557,558,559,560,561,562,563,564,565,566,567,568,569,570,571,572,573,574,575,576,577,578,579,580,581,582,583,584,585,586,587,588,589,590,591,592,593,594,595,596,597,598,599,600,601,602,603,604,605,606,607,608,609,610,611,612,613,614,615,616,617,618,619,620,621,622,623,624,625,626,627,628,629,630,631,632,633,634,635,636,637,638,639,640,641,642,643,644,645,646,647,648,649,650,651,652,653,654,655,656,657,658,659,660,661,662,663,664,665,666,667,668,669,670,671,672,673,674,675,676,677,678,679,680,681,682,683,684,685,686,687,688,689,690,691,692,693,694,695,696,697,698,699,700,701,702,703,704,705,706,707,708,709,710,711,712,713,714,715,716,717,718,719,720,721,722,723,724,725,726,727,728,729,730,731,732,733,734,735,736,737,738,739,740,741,742,743,744,745,746,747,748,749,750,751,752,753,754,755,756,757,758,759,760,761,762,763,764,765,766,767,768,769,770,771,772,773,774,775,776,777,778,779,780,781,782,783,784,785,786,787,788,789,790,791,792,793,794,795,796,797,798,799,800,801,802,803,804,805,806,807,808,809,810,811,812,813,814,815,816,817,818,819,820,821,822,823,824,825,826,827,828,829,830,831,832,833,834,835,836,837,838,839,840,841,842,843,844,845,846,847,848,849,850,851,852,853,854,855,856,857,858,859,860,861,862,863,864,865,866,867,868,869,870,871,872,873,874,875,876,877,878,879,880,881,882,883,884,885,886,887,888,889,890,891,892,893,894,895,896,897,898,899,900,901,902,903,904,905,906,907,908,909,910,911,912,913,914,915,916,917,918,919,920,921,922,923,924,925,926,927,928,929,930,931,932,933,934,935,936,937,938,939,940,941,942,943,944,945,946,947,948,949,950,951,952,953,954,955,956,957,958,959,960,961,962,963,964,965,966,967,968,969,970,971,972,973,974,975,976,977,978,979,980,981,982,983,984,985,986,987,988,989,990,991,992,993,994,995,996,997,998,999,1000,1001,1002,1003,1004,1005,1006,1007,1008,1009,1010,1011,1012,1013,1014,1015,1016,1017,1018,1019,1020,1021,1022,1023,1024,1025,1026,1027,1028,1029,1030,1031,1032,1033,1034,1035,1036,1037,1038,1039,1040,1041,1042,1043,1044,1045,1046,1047,1048,1049,1050,1051,1052,1053,1054,1055,1056,1057,1058,1059,1060,1061,1062,1063,1064,1065,1066,1067,1068,1069,1070,1071,1072,1073,1074,1075,1076,1077,1078,1079,1080,1081,1082,1083,1084,1085,1086,1087,1088,1089,1090,1091,1092,1093,1094,1095,1096,1097,1098,1099,1100,1101,1102,1103,1104,1105,1106,1107,1108,1109,1110,1111,1112,1113,1114,1115,1116,1117,1118,1119,1120,1121,1122,1123,1124,1125,1126,1127,1128,1129,1130,1131,1132,1133,1134,1135,1136,1137,1138,1139,1140,1141,1142,1143,1144,1145,1146,1147,1148,1149,1150,1151,1152,1153,1154,1155,1156,1157,1158,1159,1160,1161,1162,1163,1164,1165,1166,1167,1168,1169,1170,1171,1172,1173,1174,1175,1176,1177,1178,1179,1180,1181,1182,1183,1184,1185,1186,1187,1188,1189,1190,1191,1192,1193,1194,1195,1196,1197,1198,1199,1200],"tree_info":[0,0,0,0,0,0,0,0,0,0,0,0,0,0,0,0,0,0,0,0,0,0,0,0,0,0,0,0,0,0,0,0,0,0,0,0,0,0,0,0,0,0,0,0,0,0,0,0,0,0,0,0,0,0,0,0,0,0,0,0,0,0,0,0,0,0,0,0,0,0,0,0,0,0,0,0,0,0,0,0,0,0,0,0,0,0,0,0,0,0,0,0,0,0,0,0,0,0,0,0,0,0,0,0,0,0,0,0,0,0,0,0,0,0,0,0,0,0,0,0,0,0,0,0,0,0,0,0,0,0,0,0,0,0,0,0,0,0,0,0,0,0,0,0,0,0,0,0,0,0,0,0,0,0,0,0,0,0,0,0,0,0,0,0,0,0,0,0,0,0,0,0,0,0,0,0,0,0,0,0,0,0,0,0,0,0,0,0,0,0,0,0,0,0,0,0,0,0,0,0,0,0,0,0,0,0,0,0,0,0,0,0,0,0,0,0,0,0,0,0,0,0,0,0,0,0,0,0,0,0,0,0,0,0,0,0,0,0,0,0,0,0,0,0,0,0,0,0,0,0,0,0,0,0,0,0,0,0,0,0,0,0,0,0,0,0,0,0,0,0,0,0,0,0,0,0,0,0,0,0,0,0,0,0,0,0,0,0,0,0,0,0,0,0,0,0,0,0,0,0,0,0,0,0,0,0,0,0,0,0,0,0,0,0,0,0,0,0,0,0,0,0,0,0,0,0,0,0,0,0,0,0,0,0,0,0,0,0,0,0,0,0,0,0,0,0,0,0,0,0,0,0,0,0,0,0,0,0,0,0,0,0,0,0,0,0,0,0,0,0,0,0,0,0,0,0,0,0,0,0,0,0,0,0,0,0,0,0,0,0,0,0,0,0,0,0,0,0,0,0,0,0,0,0,0,0,0,0,0,0,0,0,0,0,0,0,0,0,0,0,0,0,0,0,0,0,0,0,0,0,0,0,0,0,0,0,0,0,0,0,0,0,0,0,0,0,0,0,0,0,0,0,0,0,0,0,0,0,0,0,0,0,0,0,0,0,0,0,0,0,0,0,0,0,0,0,0,0,0,0,0,0,0,0,0,0,0,0,0,0,0,0,0,0,0,0,0,0,0,0,0,0,0,0,0,0,0,0,0,0,0,0,0,0,0,0,0,0,0,0,0,0,0,0,0,0,0,0,0,0,0,0,0,0,0,0,0,0,0,0,0,0,0,0,0,0,0,0,0,0,0,0,0,0,0,0,0,0,0,0,0,0,0,0,0,0,0,0,0,0,0,0,0,0,0,0,0,0,0,0,0,0,0,0,0,0,0,0,0,0,0,0,0,0,0,0,0,0,0,0,0,0,0,0,0,0,0,0,0,0,0,0,0,0,0,0,0,0,0,0,0,0,0,0,0,0,0,0,0,0,0,0,0,0,0,0,0,0,0,0,0,0,0,0,0,0,0,0,0,0,0,0,0,0,0,0,0,0,0,0,0,0,0,0,0,0,0,0,0,0,0,0,0,0,0,0,0,0,0,0,0,0,0,0,0,0,0,0,0,0,0,0,0,0,0,0,0,0,0,0,0,0,0,0,0,0,0,0,0,0,0,0,0,0,0,0,0,0,0,0,0,0,0,0,0,0,0,0,0,0,0,0,0,0,0,0,0,0,0,0,0,0,0,0,0,0,0,0,0,0,0,0,0,0,0,0,0,0,0,0,0,0,0,0,0,0,0,0,0,0,0,0,0,0,0,0,0,0,0,0,0,0,0,0,0,0,0,0,0,0,0,0,0,0,0,0,0,0,0,0,0,0,0,0,0,0,0,0,0,0,0,0,0,0,0,0,0,0,0,0,0,0,0,0,0,0,0,0,0,0,0,0,0,0,0,0,0,0,0,0,0,0,0,0,0,0,0,0,0,0,0,0,0,0,0,0,0,0,0,0,0,0,0,0,0,0,0,0,0,0,0,0,0,0,0,0,0,0,0,0,0,0,0,0,0,0,0,0,0,0,0,0,0,0,0,0,0,0,0,0,0,0,0,0,0,0,0,0,0,0,0,0,0,0,0,0,0,0,0,0,0,0,0,0,0,0,0,0,0,0,0,0,0,0,0,0,0,0,0,0,0,0,0,0,0,0,0,0,0,0,0,0,0,0,0,0,0,0,0,0,0,0,0,0,0,0,0,0,0,0,0,0,0,0,0,0,0,0,0,0,0,0,0,0,0,0,0,0,0,0,0,0,0,0,0,0,0,0,0,0,0,0,0,0,0,0,0,0,0,0,0,0,0,0,0,0,0,0,0,0,0,0,0,0,0,0,0,0,0,0,0,0,0,0,0,0,0,0,0,0,0,0,0,0,0,0,0,0,0,0,0,0,0,0,0,0,0,0,0,0,0,0,0,0,0,0,0,0,0,0,0,0,0,0,0,0,0,0,0,0,0,0,0,0,0,0,0,0,0,0,0,0,0,0,0,0,0,0,0,0,0,0,0,0,0,0,0,0,0,0,0,0,0,0,0,0,0,0,0,0,0,0,0,0,0,0,0,0,0,0,0,0,0,0,0,0,0,0,0,0,0,0,0,0,0,0,0,0,0,0,0,0,0,0,0,0,0,0,0,0,0,0,0,0,0,0,0,0,0,0,0,0,0,0,0,0,0,0,0,0,0,0,0,0,0,0,0,0,0,0,0,0,0,0,0,0,0,0,0,0],"trees":[{"base_weights":[9.401995E3,-2.091672E5,2.4069352E5,-4.3181047E5,-1.1772721E5,1.3569103E5,3.961494E5,-6.2576044E5,-3.0907672E5,-2.2926323E5,-7.1167164E4,-1.3621994E5,1.7549216E5,3.3638516E5,2.6493482E4,-3.9987246E4,-4.8726666E5,-3.3953262E5,4.6618457E4,-2.0113988E5,-3.7645862E5,-9.524431E4,9.21589E4,-3.2965697E5,-8.27968E4,1.417787E5,2.5568677E5,2.790937E5,3.7855975E5,-5.3949785E3,-2.6772557E4,-2.1416346E4,-1.3540302E4,-2.14325E3,7.162304E3,-8.811358E3,-1.8477941E4,-3.0510625E3,-1.9352967E4,-6.1554893E3,-8.36277E2,5.8148564E3,-7.6586104E3,3.2517E3,-2.0754928E4,-1.01343256E3,-9.413509E3,7.273148E3,-1.1975967E4,1.313739E4,-1.2063125E2,1.0833003E4,1.48971455E4,1.9139496E4,-2.8034875E3],"categories":[],"categories_nodes":[],"categories_segments":[],"categories_sizes":[],"default_left":[0,0,0,0,0,0,0,0,0,0,0,0,0,0,0,0,0,0,0,0,0,0,0,0,0,0,0,0,0,0,0,0,0,0,0,0,0,0,0,0,0,0,0,0,0,0,0,0,0,0,0,0,0,0,0],"id":0,"left_children":[1,3,5,7,9,11,13,15,17,19,21,23,25,27,-1,-1,29,31,33,35,37,39,41,43,45,47,49,51,53,-1,-1,-1,-1,-1,-1,-1,-1,-1,-1,-1,-1,-1,-1,-1,-1,-1,-1,-1,-1,-1,-1,-1,-1,-1,-1],"loss_changes":[7.679011E13,1.5849155E13,1.1992811E13,5.2101435E12,2.8658667E12,4.807389E12,2.1952903E12,1.7066434E12,1.5432826E12,5.9903836E11,1.5542212E12,5.6174405E11,1.0073533E12,3.9692586E11,0E0,0E0,8.744841E11,6.77335E11,1.0989913E11,5.180862E11,5.99775E10,7.484117E11,3.1982823E11,4.3167187E11,2.995566E11,4.1975546E11,2.0657052E11,4.3715658E10,2.3657447E11,0E0,0E0,0E0,0E0,0E0,0E0,0E0,0E0,0E0,0E0,0E0,0E0,0E0,0E0,0E0,0E0,0E0,0E0,0E0,0E0,0E0,0E0,0E0,0E0,0E0,0E0],"parents":[2147483647,0,0,1,1,2,2,3,3,4,4,5,5,6,6,7,7,8,8,9,9,10,10,11,11,12,12,13,13,16,16,17,17,18,18,19,19,20,20,21,21,22,22,23,23,24,24,25,25,26,26,27,27,28,28],"right_children":[2,4,6,8,10,12,14,16,18,20,22,24,26,28,-1,-1,30,32,34,36,38,40,42,44,46,48,50,52,54,-1,-1,-1,-1,-1,-1,-1,-1,-1,-1,-1,-1,-1,-1,-1,-1,-1,-1,-1,-1,-1,-1,-1,-1,-1,-1],"split_conditions":[2.3734E6,1.992251E6,2.449389E6,4.1E1,1.945183E6,2.090089E6,2.726021E6,1.282646E6,2.203639E6,1E0,2.31274E6,1.800947E6,2.633264E6,2.647034E6,2.6493482E4,-3.9987246E4,7E0,1.633547E6,2.277401E6,4.1E1,4E0,2.284831E6,3.57E2,-6E0,5E0,1E0,1E0,2.50908E6,1E0,-5.3949785E3,-2.6772557E4,-2.1416346E4,-1.3540302E4,-2.14325E3,7.162304E3,-8.811358E3,-1.8477941E4,-3.0510625E3,-1.9352967E4,-6.1554893E3,-8.36277E2,5.8148564E3,-7.6586104E3,3.2517E3,-2.0754928E4,-1.01343256E3,-9.413509E3,7.273148E3,-1.1975967E4,1.313739E4,-1.2063125E2,1.0833003E4,1.48971455E4,1.9139496E4,-2.8034875E3],"split_indices":[14,14,15,3,15,15,15,15,15,9,15,15,14,14,0,0,3,15,15,4,3,14,3,11,11,10,10,14,10,0,0,0,0,0,0,0,0,0,0,0,0,0,0,0,0,0,0,0,0,0,0,0,0,0,0],"split_type":[0,0,0,0,0,0,0,0,0,0,0,0,0,0,0,0,0,0,0,0,0,0,0,0,0,0,0,0,0,0,0,0,0,0,0,0,0,0,0,0,0,0,0,0,0,0,0,0,0,0,0,0,0,0,0],"sum_hessian":[1.517E3,7.8E2,7.37E2,2.26E2,5.54E2,4.41E2,2.96E2,8.6E1,1.4E2,1.62E2,3.92E2,5.6E1,3.85E2,2.07E2,8.9E1,3.6E1,5E1,1.29E2,1.1E1,1.38E2,2.4E1,3.42E2,5E1,1.1E1,4.5E1,2.73E2,1.12E2,9.1E1,1.16E2,6E0,4.4E1,5.4E1,7.5E1,6E0,5E0,1.22E2,1.6E1,1E0,2.3E1,2.52E2,9E1,4.6E1,4E0,2E0,9E0,2.9E1,1.6E1,2.71E2,2E0,1.09E2,3E0,2.4E1,6.7E1,1.15E2,1E0],"tree_param":{"num_deleted":"0","num_feature":"18","num_nodes":"55","size_leaf_vector":"1"}},{"base_weights":[1.6870245E3,-2.2856342E5,1.9509534E5,-4.209454E5,-1.3456069E5,6.651534E4,3.3354806E5,-8.1686294E5,-3.5415812E5,-1.7163556E5,2.0513898E4,-1.143737E5,1.1623691E5,2.695743E5,4.6588684E5,-4.328755E4,-2.592919E4,-4.6106972E5,-2.2828992E5,-2.4313456E5,-1.2837398E5,-3.6199164E4,1.370371E5,-8.2705664E4,-4.9162316E5,1.24038445E5,-3.348209E5,1.780685E5,2.9889853E5,1.7223838E4,2.432478E4,-2.698799E4,-1.8985975E4,-1.2405343E4,-2.0490212E3,-1.3651419E4,-2.9655671E3,1.1571084E4,-6.6210425E3,-5.7544136E3,1.607664E3,-7.579583E1,1.2918287E4,-9.292626E3,-2.353513E3,-8.5798E3,-2.926574E4,3.7023704E3,8.619924E3,-2.085018E4,1.9023125E3,9.250917E3,-7.18925E3,1.5888283E4,1.243179E4],"categories":[],"categories_nodes":[],"categories_segments":[],"categories_sizes":[],"default_left":[0,0,0,0,0,0,0,0,0,0,0,0,0,0,0,0,0,0,0,0,0,0,0,0,0,0,0,0,0,0,0,0,0,0,0,0,0,0,0,0,0,0,0,0,0,0,0,0,0,0,0,0,0,0,0],"id":1,"left_children":[1,3,5,7,9,11,13,15,17,19,21,23,25,27,29,-1,-1,31,33,35,37,39,41,43,45,47,49,51,53,-1,-1,-1,-1,-1,-1,-1,-1,-1,-1,-1,-1,-1,-1,-1,-1,-1,-1,-1,-1,-1,-1,-1,-1,-1,-1],"loss_changes":[6.7600172E13,1.2475865E13,1.4664667E13,5.713091E12,2.688478E12,3.871757E12,3.2354945E12,1.7670603E10,2.5322712E12,1.1349084E12,6.063239E11,1.07038795E12,1.2274143E12,6.712753E11,1.5268315E11,0E0,0E0,4.6719513E11,3.3132695E11,7.586264E11,3.757276E11,3.3802076E11,5.0470512E11,3.1103602E11,1.09449445E11,7.8986713E11,1.9972483E11,1.7870697E11,1.1349996E11,0E0,0E0,0E0,0E0,0E0,0E0,0E0,0E0,0E0,0E0,0E0,0E0,0E0,0E0,0E0,0E0,0E0,0E0,0E0,0E0,0E0,0E0,0E0,0E0,0E0,0E0],"parents":[2147483647,0,0,1,1,2,2,3,3,4,4,5,5,6,6,7,7,8,8,9,9,10,10,11,11,12,12,13,13,14,14,17,17,18,18,19,19,20,20,21,21,22,22,23,23,24,24,25,25,26,26,27,27,28,28],"right_children":[2,4,6,8,10,12,14,16,18,20,22,24,26,28,30,-1,-1,32,34,36,38,40,42,44,46,48,50,52,54,-1,-1,-1,-1,-1,-1,-1,-1,-1,-1,-1,-1,-1,-1,-1,-1,-1,-1,-1,-1,-1,-1,-1,-1,-1,-1],"split_conditions":[2.304407E6,1.818203E6,2.333408E6,8.67476E5,2.211091E6,2.094212E6,2.672648E6,4.7E1,1.992251E6,2.067463E6,2.38203E6,1E0,1E0,2.510294E6,1.33E2,-4.328755E4,-2.592919E4,4.6E1,2.261245E6,3.24E2,2.072207E6,1E0,3E0,1.828932E6,1E0,2.505399E6,4E0,3.57E2,2.025E3,1.7223838E4,2.432478E4,-2.698799E4,-1.8985975E4,-1.2405343E4,-2.0490212E3,-1.3651419E4,-2.9655671E3,1.1571084E4,-6.6210425E3,-5.7544136E3,1.607664E3,-7.579583E1,1.2918287E4,-9.292626E3,-2.353513E3,-8.5798E3,-2.926574E4,3.7023704E3,8.619924E3,-2.085018E4,1.9023125E3,9.250917E3,-7.18925E3,1.5888283E4,1.243179E4],"split_indices":[14,15,15,15,15,15,15,3,14,14,15,10,10,14,3,0,0,3,14,3,14,6,0,15,0,14,0,3,2,0,0,0,0,0,0,0,0,0,0,0,0,0,0,0,0,0,0,0,0,0,0,0,0,0,0],"split_type":[0,0,0,0,0,0,0,0,0,0,0,0,0,0,0,0,0,0,0,0,0,0,0,0,0,0,0,0,0,0,0,0,0,0,0,0,0,0,0,0,0,0,0,0,0,0,0,0,0,0,0,0,0,0,0],"sum_hessian":[1.516E3,6.92E2,8.24E2,2.26E2,4.66E2,4.28E2,3.96E2,3.1E1,1.95E2,3.76E2,9E1,9.2E1,3.36E2,2.69E2,1.27E2,2.5E1,6E0,1.04E2,9.1E1,1.4E2,2.36E2,6.1E1,2.9E1,8.6E1,6E0,3.31E2,5E0,6.7E1,2.02E2,2.1E1,1.06E2,5E1,5.4E1,8.2E1,9E0,1.2E2,2E1,2E0,2.34E2,2.8E1,3.3E1,1.4E1,1.5E1,2.1E1,6.5E1,2E0,4E0,1.64E2,1.67E2,4E0,1E0,6.6E1,1E0,1.43E2,5.9E1],"tree_param":{"num_deleted":"0","num_feature":"18","num_nodes":"55","size_leaf_vector":"1"}},{"base_weights":[3.5139536E3,-2.0434697E5,1.9809105E5,-4.3571153E5,-1.28413625E5,1.030953E5,3.5660975E5,-3.945418E4,-3.640102E5,-2.1462773E5,-5.8152152E4,-9.434717E4,1.3980103E5,3.038877E5,4.8470894E5,-3.9709938E5,-4.1940016E4,-2.8363875E5,-1.7070288E5,-7.787373E4,1.3621002E5,-2.0893952E5,-5.2484117E4,6.005251E4,1.7149338E5,2.4577452E5,3.5141E5,1.291718E4,2.4650266E4,-2.507596E3,-2.0502887E4,8.708268E3,-6.81785E3,-1.4657508E4,6.3859375E1,-7.428721E3,-1.503068E4,-6.013122E3,-1.5503809E3,-3.8718267E3,1.0555649E4,-7.0970894E3,-1.4584669E4,-1.6259875E3,-1.26804795E4,-1.049683E4,3.5733748E3,8.812253E3,-1.06156875E4,1.256565E4,-7.009519E3,1.7787152E4,-3.1306062E3],"categories":[],"categories_nodes":[],"categories_segments":[],"categories_sizes":[],"default_left":[0,0,0,0,0,0,0,0,0,0,0,0,0,0,0,0,0,0,0,0,0,0,0,0,0,0,0,0,0,0,0,0,0,0,0,0,0,0,0,0,0,0,0,0,0,0,0,0,0,0,0,0,0],"id":2,"left_children":[1,3,5,7,9,11,13,-1,15,17,19,21,23,25,27,29,31,33,35,37,39,41,43,45,47,49,51,-1,-1,-1,-1,-1,-1,-1,-1,-1,-1,-1,-1,-1,-1,-1,-1,-1,-1,-1,-1,-1,-1,-1,-1,-1,-1],"loss_changes":[6.006082E13,1.2558078E13,1.1513182E13,4.197456E12,3.2707004E12,3.499128E12,1.7910014E12,0E0,1.571245E12,6.881878E11,1.1605453E12,3.5362013E11,1.01583317E12,4.825379E11,2.6631733E10,5.863784E11,3.298089E11,2.5239853E11,3.8941963E11,5.3861115E11,4.6442512E11,6.9482906E10,2.2062724E11,3.7558836E11,5.663018E11,2.4044687E11,2.2140368E11,0E0,0E0,0E0,0E0,0E0,0E0,0E0,0E0,0E0,0E0,0E0,0E0,0E0,0E0,0E0,0E0,0E0,0E0,0E0,0E0,0E0,0E0,0E0,0E0,0E0,0E0],"parents":[2147483647,0,0,1,1,2,2,3,3,4,4,5,5,6,6,8,8,9,9,10,10,11,11,12,12,13,13,14,14,15,15,16,16,17,17,18,18,19,19,20,20,21,21,22,22,23,23,24,24,25,25,26,26],"right_children":[2,4,6,8,10,12,14,-1,16,18,20,22,24,26,28,30,32,34,36,38,40,42,44,46,48,50,52,-1,-1,-1,-1,-1,-1,-1,-1,-1,-1,-1,-1,-1,-1,-1,-1,-1,-1,-1,-1,-1,-1,-1,-1,-1,-1],"split_conditions":[2.339945E6,1.950994E6,2.449389E6,8.67476E5,2.029644E6,2.090089E6,2.726021E6,-3.945418E4,3.21E2,2.102342E6,2.38203E6,1.861198E6,2.454485E6,2.647034E6,1.3E2,1.234827E6,3.33E2,3.23E2,1E0,2.187792E6,2.139036E6,2.454485E6,2.705415E6,2E0,1E0,3.54E2,1E0,1.291718E4,2.4650266E4,-2.507596E3,-2.0502887E4,8.708268E3,-6.81785E3,-1.4657508E4,6.3859375E1,-7.428721E3,-1.503068E4,-6.013122E3,-1.5503809E3,-3.8718267E3,1.0555649E4,-7.0970894E3,-1.4584669E4,-1.6259875E3,-1.26804795E4,-1.049683E4,3.5733748E3,8.812253E3,-1.06156875E4,1.256565E4,-7.009519E3,1.7787152E4,-3.1306062E3],"split_indices":[14,14,15,15,15,15,15,0,3,14,15,15,14,14,3,14,3,3,9,14,14,14,14,1,10,3,10,0,0,0,0,0,0,0,0,0,0,0,0,0,0,0,0,0,0,0,0,0,0,0,0,0,0],"split_type":[0,0,0,0,0,0,0,0,0,0,0,0,0,0,0,0,0,0,0,0,0,0,0,0,0,0,0,0,0,0,0,0,0,0,0,0,0,0,0,0,0,0,0,0,0,0,0,0,0,0,0,0,0],"sum_hessian":[1.483E3,7.17E2,7.66E2,1.76E2,5.41E2,4.8E2,2.86E2,2.8E1,1.48E2,2.42E2,2.99E2,7.5E1,4.05E2,2.05E2,8.1E1,1.34E2,1.4E1,9.2E1,1.5E2,2.72E2,2.7E1,1.9E1,5.6E1,1.16E2,2.89E2,9.5E1,1.1E2,4E0,7.7E1,5E0,1.29E2,4E0,1E1,8.9E1,3E0,1.3E2,2E1,1.42E2,1.3E2,7E0,2E1,1.2E1,7E0,5.2E1,4E0,4E0,1.12E2,2.86E2,3E0,9.4E1,1E0,1.09E2,1E0],"tree_param":{"num_deleted":"0","num_feature":"18","num_nodes":"53","size_leaf_vector":"1"}},{"base_weights":[1.4857253E3,-1.9851931E5,1.9030689E5,-4.1856806E5,-1.2896595E5,8.873707E4,2.8113878E5,-5.2259922E5,-2.8459744E5,-2.0090266E5,-9.434777E4,-2.1555608E5,1.075033E5,3.0605328E5,1.5176966E5,-1.4254081E5,-5.499674E5,-3.0687888E5,-4.570447E4,-2.1886828E5,-5.947841E4,-2.9401434E5,-8.256935E4,-2.3748655E5,-2.874869E3,1.1795107E5,-3.0377844E5,5.3311453E4,3.2134847E5,2.397886E5,-4.7170285E4,-2.348154E3,-1.4309133E4,-3.0969666E4,-2.2425055E4,-1.5690456E4,-2.0285166E3,-8.7602705E3,6.3798906E3,-1.1343809E4,-1.8178313E3,1.1751409E4,-5.917468E3,-5.8451666E2,-1.6155869E4,-6.07315E3,-1.9935072E3,-1.4844489E4,-7.716733E3,3.2495896E3,8.436161E3,3.2229958E3,-2.0909898E4,7.023108E3,-9.398784E3,1.4145464E4,2.0288816E4,7.334604E3,1.7157197E4,9.356285E3,-5.4815967E3],"categories":[],"categories_nodes":[],"categories_segments":[],"categories_sizes":[],"default_left":[0,0,0,0,0,0,0,0,0,0,0,0,0,0,0,0,0,0,0,0,0,0,0,0,0,0,0,0,0,0,0,0,0,0,0,0,0,0,0,0,0,0,0,0,0,0,0,0,0,0,0,0,0,0,0,0,0,0,0,0,0],"id":3,"left_children":[1,3,5,7,9,11,13,15,17,19,21,23,25,27,29,31,33,35,37,39,41,43,45,47,-1,49,51,53,55,57,59,-1,-1,-1,-1,-1,-1,-1,-1,-1,-1,-1,-1,-1,-1,-1,-1,-1,-1,-1,-1,-1,-1,-1,-1,-1,-1,-1,-1,-1,-1],"loss_changes":[5.7780744E13,1.1317732E13,7.2357406E12,2.332077E12,1.3905638E12,2.1531654E12,1.291164E12,9.513562E11,4.1180516E11,4.5194412E11,8.787982E11,6.260379E10,1.5483666E12,1.3242802E12,1.2195341E12,9.639169E10,3.7028574E11,1.2199553E11,2.0189828E11,2.2851984E11,4.0924886E11,1.6876896E11,5.99662E11,4.802996E10,0E0,9.140007E11,4.061599E11,4.6799864E11,9.464258E11,4.1152047E11,3.4247423E11,0E0,0E0,0E0,0E0,0E0,0E0,0E0,0E0,0E0,0E0,0E0,0E0,0E0,0E0,0E0,0E0,0E0,0E0,0E0,0E0,0E0,0E0,0E0,0E0,0E0,0E0,0E0,0E0,0E0,0E0],"parents":[2147483647,0,0,1,1,2,2,3,3,4,4,5,5,6,6,7,7,8,8,9,9,10,10,11,11,12,12,13,13,14,14,15,15,16,16,17,17,18,18,19,19,20,20,21,21,22,22,23,23,25,25,26,26,27,27,28,28,29,29,30,30],"right_children":[2,4,6,8,10,12,14,16,18,20,22,24,26,28,30,32,34,36,38,40,42,44,46,48,-1,50,52,54,56,58,60,-1,-1,-1,-1,-1,-1,-1,-1,-1,-1,-1,-1,-1,-1,-1,-1,-1,-1,-1,-1,-1,-1,-1,-1,-1,-1,-1,-1,-1,-1],"split_conditions":[2.339945E6,1.943701E6,2.580105E6,4.6E1,2.094212E6,2E0,3.02E2,7E0,2.024E3,3.26E2,1.5E1,2.568962E6,1E0,3E0,5E0,4E0,1.752024E6,6E0,3.18E2,1E0,1.2E1,4E0,3E0,1.2E1,-2.874869E3,2.454485E6,7E0,5E0,2.789715E6,1.2E1,3.23E2,-2.348154E3,-1.4309133E4,-3.0969666E4,-2.2425055E4,-1.5690456E4,-2.0285166E3,-8.7602705E3,6.3798906E3,-1.1343809E4,-1.8178313E3,1.1751409E4,-5.917468E3,-5.8451666E2,-1.6155869E4,-6.07315E3,-1.9935072E3,-1.4844489E4,-7.716733E3,3.2495896E3,8.436161E3,3.2229958E3,-2.0909898E4,7.023108E3,-9.398784E3,1.4145464E4,2.0288816E4,7.334604E3,1.7157197E4,9.356285E3,-5.4815967E3],"split_indices":[14,14,14,3,14,1,3,3,2,3,3,14,10,1,11,12,14,0,3,13,1,3,0,3,0,14,1,11,14,1,3,0,0,0,0,0,0,0,0,0,0,0,0,0,0,0,0,0,0,0,0,0,0,0,0,0,0,0,0,0,0],"split_type":[0,0,0,0,0,0,0,0,0,0,0,0,0,0,0,0,0,0,0,0,0,0,0,0,0,0,0,0,0,0,0,0,0,0,0,0,0,0,0,0,0,0,0,0,0,0,0,0,0,0,0,0,0,0,0,0,0,0,0,0,0],"sum_hessian":[1.528E3,7.42E2,7.86E2,1.77E2,5.65E2,3.72E2,4.14E2,9.8E1,7.9E1,1.82E2,3.83E2,2.1E1,3.51E2,3.46E2,6.8E1,7E0,9.1E1,7.2E1,7E0,1.61E2,2.1E1,2E1,3.63E2,1.8E1,3E0,3.43E2,8E0,2E1,3.26E2,4.7E1,2.1E1,5E0,2E0,5.1E1,4E1,7E1,2E0,4E0,3E0,1.54E2,7E0,3E0,1.8E1,2E0,1.8E1,1.89E2,1.74E2,9E0,9E0,1.69E2,1.74E2,2E0,6E0,1.5E1,5E0,2.27E2,9.9E1,2.6E1,2.1E1,4E0,1.7E1],"tree_param":{"num_deleted":"0","num_feature":"18","num_nodes":"61","size_leaf_vector":"1"}},{"base_weights":[1.9549614E3,-1.2192038E5,2.4872058E5,-3.2845562E5,-3.2012734E4,1.6607761E5,3.5332366E5,-6.495223E5,-2.7184084E5,-1.6848798E5,4.438346E3,1.1218456E5,2.0539584E5,2.9915425E5,2.2379521E4,-7.0728725E5,-2.1586406E4,-3.9618516E5,-2.2145083E5,-1.9120773E5,-1.3521213E4,-1.0876438E5,3.759906E4,2.1439417E5,9.359449E4,1.3813381E5,2.4123456E5,3.2071347E5,1.6502064E5,-4.0799344E4,-2.8926256E4,-2.0872812E4,-8.425833E3,-8.813276E3,-1.4671427E4,-6.991775E3,-1.2682287E4,3.5686938E3,-2.3288916E3,-5.9139585E3,5.0622295E3,4.2977188E3,-9.746906E2,1.1679261E4,2.0288625E3,5.5534955E2,5.894906E3,4.22416E3,8.7549E3,1.2979168E4,7.2259907E3,1.3384367E4,1.7342928E4,-5.4666606E3,1.2607217E4],"categories":[],"categories_nodes":[],"categories_segments":[],"categories_sizes":[],"default_left":[0,0,0,0,0,0,0,0,0,0,0,0,0,0,0,0,0,0,0,0,0,0,0,0,0,0,0,0,0,0,0,0,0,0,0,0,0,0,0,0,0,0,0,0,0,0,0,0,0,0,0,0,0,0,0],"id":4,"left_children":[1,3,5,7,9,11,13,15,17,19,21,23,25,27,-1,29,-1,31,33,35,37,39,41,43,45,47,49,51,53,-1,-1,-1,-1,-1,-1,-1,-1,-1,-1,-1,-1,-1,-1,-1,-1,-1,-1,-1,-1,-1,-1,-1,-1,-1,-1],"loss_changes":[4.6188267E13,1.8669996E13,4.3069022E12,5.367457E12,3.4929666E12,5.787484E11,9.9971655E11,2.6078295E11,1.5476164E12,5.184941E11,2.0874945E12,2.1174406E11,3.5960285E11,3.634962E11,0E0,3.806331E9,0E0,2.880155E11,5.597173E11,3.7830944E11,5.945134E10,2.6374714E11,1.1887955E12,5.056476E10,2.0918868E11,1.0221296E11,1.488181E11,7.7675364E10,5.534275E11,0E0,0E0,0E0,0E0,0E0,0E0,0E0,0E0,0E0,0E0,0E0,0E0,0E0,0E0,0E0,0E0,0E0,0E0,0E0,0E0,0E0,0E0,0E0,0E0,0E0,0E0],"parents":[2147483647,0,0,1,1,2,2,3,3,4,4,5,5,6,6,7,7,8,8,9,9,10,10,11,11,12,12,13,13,15,15,17,17,18,18,19,19,20,20,21,21,22,22,23,23,24,24,25,25,26,26,27,27,28,28],"right_children":[2,4,6,8,10,12,14,16,18,20,22,24,26,28,-1,30,-1,32,34,36,38,40,42,44,46,48,50,52,54,-1,-1,-1,-1,-1,-1,-1,-1,-1,-1,-1,-1,-1,-1,-1,-1,-1,-1,-1,-1,-1,-1,-1,-1,-1,-1],"split_conditions":[2.266792E6,1.903886E6,2.579257E6,9.74236E5,6.7E1,2.38203E6,2.744596E6,4.4E1,4.6E1,2.203639E6,2.067274E6,1E0,3E0,3.14E2,2.2379521E4,7.74699E5,-2.1586406E4,6E0,2.4E2,2.199126E6,1E0,6E0,3.4E1,4.5E1,3E0,2.5E1,2.96E2,2.636399E6,3.26E2,-4.0799344E4,-2.8926256E4,-2.0872812E4,-8.425833E3,-8.813276E3,-1.4671427E4,-6.991775E3,-1.2682287E4,3.5686938E3,-2.3288916E3,-5.9139585E3,5.0622295E3,4.2977188E3,-9.746906E2,1.1679261E4,2.0288625E3,5.5534955E2,5.894906E3,4.22416E3,8.7549E3,1.2979168E4,7.2259907E3,1.3384367E4,1.7342928E4,-5.4666606E3,1.2607217E4],"split_indices":[15,15,15,15,3,15,15,3,3,15,15,0,0,3,0,15,0,0,3,15,12,0,4,4,0,4,3,15,3,0,0,0,0,0,0,0,0,0,0,0,0,0,0,0,0,0,0,0,0,0,0,0,0,0,0],"split_type":[0,0,0,0,0,0,0,0,0,0,0,0,0,0,0,0,0,0,0,0,0,0,0,0,0,0,0,0,0,0,0,0,0,0,0,0,0,0,0,0,0,0,0,0,0,0,0,0,0,0,0,0,0,0,0],"sum_hessian":[1.509E3,1.005E3,5.04E2,3.04E2,7.01E2,2.83E2,2.21E2,4.4E1,2.6E2,1.47E2,5.54E2,1.21E2,1.62E2,1.43E2,7.8E1,3.3E1,1.1E1,7.3E1,1.87E2,1.28E2,1.9E1,1.25E2,4.29E2,1.7E1,1.04E2,5.8E1,1.04E2,1.22E2,2.1E1,1.5E1,1.8E1,6.6E1,7E0,1.17E2,7E1,7.2E1,5.6E1,5E0,1.4E1,1.2E2,5E0,2.32E2,1.97E2,1.5E1,2E0,2.4E1,8E1,2.5E1,3.3E1,8.6E1,1.8E1,4.4E1,7.8E1,5E0,1.6E1],"tree_param":{"num_deleted":"0","num_feature":"18","num_nodes":"55","size_leaf_vector":"1"}},{"base_weights":[-2.9449768E3,-1.7387842E5,1.8900508E5,-3.485852E5,-9.834761E4,1.0465454E5,3.193205E5,-3.342362E4,-3.042289E5,-1.7679402E5,-4.576244E4,-1.11540445E5,1.383379E5,2.704309E5,4.200377E5,-4.030262E5,-2.3104166E5,-4.4881178E5,-1.6614723E5,-7.988714E4,3.3098773E4,-2.4912347E5,-6.0143355E4,8.3762375E4,1.692113E5,2.1811739E5,3.0839653E5,1.9740002E4,2.5683207E4,-2.5431157E3,-2.1588383E4,-1.2397928E4,2.5795923E3,-2.428292E4,-4.7721377E3,-7.0420425E3,-1.1050772E4,-4.331995E3,1.692487E4,-5.5080815E3,2.3915203E3,4.0110793E3,-1.5095144E4,-1.4344813E3,-1.0101533E4,1.1491495E3,4.9040747E3,8.742655E3,-4.1391147E3,8.527039E3,1.232456E4,1.6034135E4,9.066796E3],"categories":[],"categories_nodes":[],"categories_segments":[],"categories_sizes":[],"default_left":[0,0,0,0,0,0,0,0,0,0,0,0,0,0,0,0,0,0,0,0,0,0,0,0,0,0,0,0,0,0,0,0,0,0,0,0,0,0,0,0,0,0,0,0,0,0,0,0,0,0,0,0,0],"id":5,"left_children":[1,3,5,7,9,11,13,-1,15,17,19,21,23,25,27,29,31,33,35,37,39,41,43,45,47,49,51,-1,-1,-1,-1,-1,-1,-1,-1,-1,-1,-1,-1,-1,-1,-1,-1,-1,-1,-1,-1,-1,-1,-1,-1,-1,-1],"loss_changes":[5.043008E13,1.0693856E13,7.9249193E12,3.272935E12,2.339101E12,3.2268684E12,1.2848307E12,0E0,1.4759483E12,5.857445E11,9.2300575E11,4.0929886E11,6.294712E11,3.180394E11,1.2229542E10,8.991151E11,6.2001565E11,5.781101E10,2.7573407E11,7.045621E11,2.2475689E11,3.0234142E11,1.9503363E11,1.1958885E11,3.599473E11,7.270721E10,1.1356812E11,0E0,0E0,0E0,0E0,0E0,0E0,0E0,0E0,0E0,0E0,0E0,0E0,0E0,0E0,0E0,0E0,0E0,0E0,0E0,0E0,0E0,0E0,0E0,0E0,0E0,0E0],"parents":[2147483647,0,0,1,1,2,2,3,3,4,4,5,5,6,6,8,8,9,9,10,10,11,11,12,12,13,13,14,14,15,15,16,16,17,17,18,18,19,19,20,20,21,21,22,22,23,23,24,24,25,25,26,26],"right_children":[2,4,6,8,10,12,14,-1,16,18,20,22,24,26,28,30,32,34,36,38,40,42,44,46,48,50,52,-1,-1,-1,-1,-1,-1,-1,-1,-1,-1,-1,-1,-1,-1,-1,-1,-1,-1,-1,-1,-1,-1,-1,-1,-1,-1],"split_conditions":[2.368846E6,1.992251E6,2.449389E6,8.67476E5,2.018002E6,2.090089E6,2.726021E6,-3.342362E4,4.6E1,1.155618E6,2.279609E6,1.828932E6,2.501942E6,2.644639E6,2.909267E6,8E0,2.203639E6,2E0,2.35E2,2.705415E6,4.1E1,-6E0,2.688266E6,2.180816E6,3.1E1,3E0,3E2,1.9740002E4,2.5683207E4,-2.5431157E3,-2.1588383E4,-1.2397928E4,2.5795923E3,-2.428292E4,-4.7721377E3,-7.0420425E3,-1.1050772E4,-4.331995E3,1.692487E4,-5.5080815E3,2.3915203E3,4.0110793E3,-1.5095144E4,-1.4344813E3,-1.0101533E4,1.1491495E3,4.9040747E3,8.742655E3,-4.1391147E3,8.527039E3,1.232456E4,1.6034135E4,9.066796E3],"split_indices":[14,14,15,15,15,15,15,0,3,15,14,15,14,14,15,3,15,1,3,15,3,11,14,15,6,0,3,0,0,0,0,0,0,0,0,0,0,0,0,0,0,0,0,0,0,0,0,0,0,0,0,0,0],"split_type":[0,0,0,0,0,0,0,0,0,0,0,0,0,0,0,0,0,0,0,0,0,0,0,0,0,0,0,0,0,0,0,0,0,0,0,0,0,0,0,0,0,0,0,0,0,0,0,0,0,0,0,0,0],"sum_hessian":[1.535E3,8.12E2,7.23E2,2.44E2,5.68E2,4.4E2,2.83E2,2.8E1,2.16E2,2.27E2,3.41E2,5.9E1,3.81E2,1.93E2,9E1,9E1,1.26E2,7E0,2.2E2,2.38E2,1.03E2,1.5E1,4.4E1,1.39E2,2.42E2,8.4E1,1.09E2,7.5E1,1.5E1,7E0,8.3E1,1.19E2,7E0,6E0,1E0,1.53E2,6.7E1,2.35E2,3E0,9E0,9.4E1,2E0,1.3E1,3.7E1,7E0,2.7E1,1.12E2,2.37E2,5E0,3.4E1,5E1,9.8E1,1.1E1],"tree_param":{"num_deleted":"0","num_feature":"18","num_nodes":"53","size_leaf_vector":"1"}},{"base_weights":[-4.998756E3,-1.9726431E5,1.3595766E5,-4.0901922E5,-1.3823802E5,4.4289504E4,2.5644338E5,-6.503687E5,-3.394783E5,-2.2623481E5,-9.086705E4,-7.534131E4,9.6220234E4,1.9232281E5,3.4906225E5,-6.9572825E5,-2.0097018E4,-3.931639E5,-2.2293202E5,-2.995463E5,-1.7450767E5,-1.0949618E5,5.4184152E4,-5.7150766E4,-3.5599756E5,1.0035849E5,-1.4186237E4,2.2756266E5,1.2299179E5,2.9063384E5,4.0295738E5,-3.5577473E4,-8.296025E3,-2.1760748E4,-1.4666765E4,-1.6682975E3,-1.4133617E4,-2.2677242E4,-1.3343275E4,-7.705638E3,-1.3550791E4,-6.0497905E3,-4.5723184E2,1.0007133E4,7.384782E2,-9.349471E3,-1.1240692E3,-2.5901143E4,-6.1386377E3,-1.8624905E3,5.5629805E3,1.1513833E4,-4.2849E3,1.1822168E3,8.470384E3,1.4898859E4,-6.6865E3,1.241277E4,2.062671E4],"categories":[],"categories_nodes":[],"categories_segments":[],"categories_sizes":[],"default_left":[0,0,0,0,0,0,0,0,0,0,0,0,0,0,0,0,0,0,0,0,0,0,0,0,0,0,0,0,0,0,0,0,0,0,0,0,0,0,0,0,0,0,0,0,0,0,0,0,0,0,0,0,0,0,0,0,0,0,0],"id":6,"left_children":[1,3,5,7,9,11,13,15,17,19,21,23,25,27,29,31,-1,33,35,37,39,41,43,45,47,49,-1,51,53,55,57,-1,-1,-1,-1,-1,-1,-1,-1,-1,-1,-1,-1,-1,-1,-1,-1,-1,-1,-1,-1,-1,-1,-1,-1,-1,-1,-1,-1],"loss_changes":[4.1003625E13,7.9428856E12,9.630669E12,2.1121424E12,2.0720271E12,3.0948697E12,2.1717833E12,5.841617E10,6.0060546E11,6.1136175E11,8.922475E11,7.505532E11,5.740655E11,5.2173472E11,3.6468634E11,8.311223E10,0E0,1.8297966E11,4.0958375E11,2.3629346E11,1.6490168E11,3.3470913E11,2.1565394E11,6.395001E11,2.7649573E11,5.201734E11,0E0,1.455628E11,3.5567593E11,2.797994E11,1.1666457E10,0E0,0E0,0E0,0E0,0E0,0E0,0E0,0E0,0E0,0E0,0E0,0E0,0E0,0E0,0E0,0E0,0E0,0E0,0E0,0E0,0E0,0E0,0E0,0E0,0E0,0E0,0E0,0E0],"parents":[2147483647,0,0,1,1,2,2,3,3,4,4,5,5,6,6,7,7,8,8,9,9,10,10,11,11,12,12,13,13,14,14,15,15,17,17,18,18,19,19,20,20,21,21,22,22,23,23,24,24,25,25,27,27,28,28,29,29,30,30],"right_children":[2,4,6,8,10,12,14,16,18,20,22,24,26,28,30,32,-1,34,36,38,40,42,44,46,48,50,-1,52,54,56,58,-1,-1,-1,-1,-1,-1,-1,-1,-1,-1,-1,-1,-1,-1,-1,-1,-1,-1,-1,-1,-1,-1,-1,-1,-1,-1,-1,-1],"split_conditions":[2.279609E6,1.880126E6,2.354474E6,8.67476E5,1.910871E6,2.135322E6,2.636399E6,4.7E1,1.886068E6,2.031976E6,2.31274E6,1E0,1E0,2.025E3,2.726021E6,6E0,-2.0097018E4,4.6E1,1.583678E6,1.6E1,1E0,3.26E2,2.024E3,4.4E1,1.565558E6,5.7E1,-1.4186237E4,1E0,2.483683E6,3.55E2,1.29E2,-3.5577473E4,-8.296025E3,-2.1760748E4,-1.4666765E4,-1.6682975E3,-1.4133617E4,-2.2677242E4,-1.3343275E4,-7.705638E3,-1.3550791E4,-6.0497905E3,-4.5723184E2,1.0007133E4,7.384782E2,-9.349471E3,-1.1240692E3,-2.5901143E4,-6.1386377E3,-1.8624905E3,5.5629805E3,1.1513833E4,-4.2849E3,1.1822168E3,8.470384E3,1.4898859E4,-6.6865E3,1.241277E4,2.062671E4],"split_indices":[14,14,15,15,15,15,15,3,15,14,15,10,10,2,15,0,0,3,14,3,9,3,2,3,15,3,0,10,15,3,3,0,0,0,0,0,0,0,0,0,0,0,0,0,0,0,0,0,0,0,0,0,0,0,0,0,0,0,0],"split_type":[0,0,0,0,0,0,0,0,0,0,0,0,0,0,0,0,0,0,0,0,0,0,0,0,0,0,0,0,0,0,0,0,0,0,0,0,0,0,0,0,0,0,0,0,0,0,0,0,0,0,0,0,0,0,0,0,0,0,0],"sum_hessian":[1.511E3,6.39E2,8.72E2,1.38E2,5.01E2,4.96E2,3.76E2,2.9E1,1.09E2,1.74E2,3.27E2,1.5E2,3.46E2,2.24E2,1.52E2,2.3E1,6E0,7.3E1,3.6E1,7E1,1.04E2,2.9E2,3.7E1,1.42E2,8E0,3.43E2,3E0,1.47E2,7.7E1,7.6E1,7.6E1,2.2E1,1E0,4.9E1,2.4E1,9E0,2.7E1,1E1,6E1,8.8E1,1.6E1,2.6E2,3E1,7E0,3E1,2.9E1,1.13E2,4E0,4E0,2.5E1,3.18E2,1.46E2,1E0,2.5E1,5.2E1,7.5E1,1E0,6E0,7E1],"tree_param":{"num_deleted":"0","num_feature":"18","num_nodes":"59","size_leaf_vector":"1"}},{"base_weights":[-2.3600425E3,-1.5507847E5,1.6138895E5,-3.2700878E5,-8.2619305E4,9.965935E4,2.5773581E5,-4.6357256E5,-2.4245656E5,-1.2591521E5,-4.204318E4,-1.7208998E5,1.1473523E5,2.7989247E5,9.609542E4,-3.28445E5,-5.21158E5,-2.7263747E5,-9.267401E4,-1.96768E5,-1.01318664E5,-2.1096188E5,-2.376055E4,3.8046125E4,-2.0392116E5,6.887537E4,1.5539725E5,2.4874894E5,3.568672E5,2.5278223E4,1.3884616E4,-3.1781E3,-1.8414191E4,-3.1647082E4,-2.0525932E4,-1.8752451E4,-1.243223E4,2.0748914E3,-8.30736E3,-7.4327417E3,-1.2312493E4,-1.571359E3,-7.3634097E3,-1.1324627E4,-3.0211252E2,-9.066635E2,-9.972833E3,3.1601208E3,-9.355688E2,-1.2628046E4,-5.5502905E3,3.7301333E3,-8.585042E3,5.0639683E3,8.885249E3,2.3237183E3,1.3011944E4,1.8538865E4,1.7328219E3,1.3400523E4,-2.1035244E3],"categories":[],"categories_nodes":[],"categories_segments":[],"categories_sizes":[],"default_left":[0,0,0,0,0,0,0,0,0,0,0,0,0,0,0,0,0,0,0,0,0,0,0,0,0,0,0,0,0,0,0,0,0,0,0,0,0,0,0,0,0,0,0,0,0,0,0,0,0,0,0,0,0,0,0,0,0,0,0,0,0],"id":7,"left_children":[1,3,5,7,9,11,13,15,17,19,21,23,25,27,29,31,33,35,37,39,41,43,45,47,49,51,53,55,57,59,-1,-1,-1,-1,-1,-1,-1,-1,-1,-1,-1,-1,-1,-1,-1,-1,-1,-1,-1,-1,-1,-1,-1,-1,-1,-1,-1,-1,-1,-1,-1],"loss_changes":[3.8036415E13,9.777374E12,4.3397457E12,2.5779996E12,9.697189E11,1.8592353E12,9.973887E11,5.1359043E11,6.347382E11,4.4711648E11,8.8441147E11,1.6829147E11,7.8368263E11,5.129403E11,4.5594703E11,2.8261692E11,4.8222542E11,2.0406023E11,2.632036E11,1.2528334E11,6.408794E11,8.774261E10,2.5443163E11,6.893836E9,6.6871296E10,2.9113555E11,2.5363323E11,4.1089604E11,3.0088993E11,4.526633E11,0E0,0E0,0E0,0E0,0E0,0E0,0E0,0E0,0E0,0E0,0E0,0E0,0E0,0E0,0E0,0E0,0E0,0E0,0E0,0E0,0E0,0E0,0E0,0E0,0E0,0E0,0E0,0E0,0E0,0E0,0E0],"parents":[2147483647,0,0,1,1,2,2,3,3,4,4,5,5,6,6,7,7,8,8,9,9,10,10,11,11,12,12,13,13,14,14,15,15,16,16,17,17,18,18,19,19,20,20,21,21,22,22,23,23,24,24,25,25,26,26,27,27,28,28,29,29],"right_children":[2,4,6,8,10,12,14,16,18,20,22,24,26,28,30,32,34,36,38,40,42,44,46,48,50,52,54,56,58,60,-1,-1,-1,-1,-1,-1,-1,-1,-1,-1,-1,-1,-1,-1,-1,-1,-1,-1,-1,-1,-1,-1,-1,-1,-1,-1,-1,-1,-1,-1,-1],"split_conditions":[2.364375E6,1.992251E6,2.648872E6,4.1E1,2.184096E6,2E0,4.4E1,2.022E3,3.21E2,-7E0,2.9E1,6E0,2.501942E6,2.839251E6,3.45E2,8E0,2.023E3,1.752024E6,3.4E2,2.24E2,1E0,1E0,3.58E2,2.022E3,1.2E1,3.54E2,2.023E3,3E0,1E0,2.671674E6,1.3884616E4,-3.1781E3,-1.8414191E4,-3.1647082E4,-2.0525932E4,-1.8752451E4,-1.243223E4,2.0748914E3,-8.30736E3,-7.4327417E3,-1.2312493E4,-1.571359E3,-7.3634097E3,-1.1324627E4,-3.0211252E2,-9.066635E2,-9.972833E3,3.1601208E3,-9.355688E2,-1.2628046E4,-5.5502905E3,3.7301333E3,-8.585042E3,5.0639683E3,8.885249E3,2.3237183E3,1.3011944E4,1.8538865E4,1.7328219E3,1.3400523E4,-2.1035244E3],"split_indices":[14,14,14,3,14,1,4,2,3,11,3,3,14,14,3,3,2,14,3,3,11,7,3,2,3,3,2,1,7,14,0,0,0,0,0,0,0,0,0,0,0,0,0,0,0,0,0,0,0,0,0,0,0,0,0,0,0,0,0,0,0],"split_type":[0,0,0,0,0,0,0,0,0,0,0,0,0,0,0,0,0,0,0,0,0,0,0,0,0,0,0,0,0,0,0,0,0,0,0,0,0,0,0,0,0,0,0,0,0,0,0,0,0,0,0,0,0,0,0,0,0,0,0,0,0],"sum_hessian":[1.519E3,7.86E2,7.33E2,2.32E2,5.54E2,4.48E2,2.85E2,8.7E1,1.45E2,2.67E2,2.87E2,2.3E1,4.25E2,2.5E2,3.5E1,2.8E1,5.9E1,1.2E2,2.5E1,6.7E1,2E2,2.7E1,2.6E2,3E0,2E1,2.01E2,2.24E2,1.81E2,6.9E1,2.6E1,9E0,4E0,2.4E1,2.7E1,3.2E1,2E1,1E2,9E0,1.6E1,3.6E1,3.1E1,8E1,1.2E2,2.5E1,2E0,2.53E2,7E0,2E0,1E0,1.2E1,8E0,1.97E2,4E0,6.7E1,1.57E2,1E1,1.71E2,6.6E1,3E0,5E0,2.1E1],"tree_param":{"num_deleted":"0","num_feature":"18","num_nodes":"61","size_leaf_vector":"1"}},{"base_weights":[1.0746542E3,-1.456917E5,1.6312767E5,-3.11813E5,-8.3180445E4,6.958507E4,2.5699758E5,-5.55399E5,-2.58657E5,-1.646319E5,-3.9101324E4,-7.906288E4,9.997241E4,1.9993814E5,3.243823E5,-3.0235896E4,-1.8968451E4,-3.157428E5,-1.6864295E5,-1.413843E5,-2.8905788E5,-6.1704977E4,7.240881E4,-2.805746E5,-3.0098113E4,1.0493233E5,-2.1464145E5,2.2473573E5,1.2832327E5,2.718645E5,3.7053756E5,-1.831334E4,-1.3499094E4,-1.1043035E4,1.4016667E1,-6.2464473E3,-1.2163507E4,-1.5554433E4,-5.614E3,-2.3989133E3,-8.0070835E3,-1.8648417E3,5.6441562E3,-2.9092812E3,-1.7411959E4,-1.2024131E2,-1.1869848E4,4.344856E3,8.336946E3,-1.4396897E4,1.9636125E3,1.3390643E4,9.962225E3,1.4517758E3,8.523689E3,1.1782773E4,1.594069E4,1.9581607E4,1.4878179E4],"categories":[],"categories_nodes":[],"categories_segments":[],"categories_sizes":[],"default_left":[0,0,0,0,0,0,0,0,0,0,0,0,0,0,0,0,0,0,0,0,0,0,0,0,0,0,0,0,0,0,0,0,0,0,0,0,0,0,0,0,0,0,0,0,0,0,0,0,0,0,0,0,0,0,0,0,0,0,0],"id":8,"left_children":[1,3,5,7,9,11,13,15,17,19,21,23,25,27,29,-1,-1,31,33,35,37,39,41,43,45,47,49,51,53,55,57,-1,-1,-1,-1,-1,-1,-1,-1,-1,-1,-1,-1,-1,-1,-1,-1,-1,-1,-1,-1,-1,-1,-1,-1,-1,-1,-1,-1],"loss_changes":[3.6032637E13,8.2297026E12,6.3043157E12,2.6660695E12,2.0723519E12,1.6430638E12,1.3154763E12,1.0049028E11,8.716854E11,5.4633064E11,9.547102E11,6.0330764E11,4.9222124E11,3.2100844E11,2.9437093E11,0E0,0E0,1.5312565E11,6.351589E11,2.5965442E11,8.580235E10,4.1659728E11,2.8838684E11,1.6031174E11,2.922092E11,3.1657506E11,1.04362885E11,1.0586266E11,2.1685672E11,6.086879E10,1.2770607E10,0E0,0E0,0E0,0E0,0E0,0E0,0E0,0E0,0E0,0E0,0E0,0E0,0E0,0E0,0E0,0E0,0E0,0E0,0E0,0E0,0E0,0E0,0E0,0E0,0E0,0E0,0E0,0E0],"parents":[2147483647,0,0,1,1,2,2,3,3,4,4,5,5,6,6,7,7,8,8,9,9,10,10,11,11,12,12,13,13,14,14,17,17,18,18,19,19,20,20,21,21,22,22,23,23,24,24,25,25,26,26,27,27,28,28,29,29,30,30],"right_children":[2,4,6,8,10,12,14,16,18,20,22,24,26,28,30,-1,-1,32,34,36,38,40,42,44,46,48,50,52,54,56,58,-1,-1,-1,-1,-1,-1,-1,-1,-1,-1,-1,-1,-1,-1,-1,-1,-1,-1,-1,-1,-1,-1,-1,-1,-1,-1,-1,-1],"split_conditions":[2.368846E6,1.978051E6,2.358565E6,9.21897E5,1.98375E6,2.104204E6,2.636399E6,7E0,1.959989E6,1E0,2.299648E6,1.800947E6,1E0,2.025E3,2.770224E6,-3.0235896E4,-1.8968451E4,7E0,4.7E1,4.1E1,9E0,1E0,2.13317E6,2.412403E6,2.025E3,2.648872E6,5E0,2.024E3,2.483683E6,2.726021E6,3.3E1,-1.831334E4,-1.3499094E4,-1.1043035E4,1.4016667E1,-6.2464473E3,-1.2163507E4,-1.5554433E4,-5.614E3,-2.3989133E3,-8.0070835E3,-1.8648417E3,5.6441562E3,-2.9092812E3,-1.7411959E4,-1.2024131E2,-1.1869848E4,4.344856E3,8.336946E3,-1.4396897E4,1.9636125E3,1.3390643E4,9.962225E3,1.4517758E3,8.523689E3,1.1782773E4,1.594069E4,1.9581607E4,1.4878179E4],"split_indices":[14,14,15,15,15,15,15,4,15,9,15,15,10,2,14,0,0,4,4,4,11,9,14,14,2,14,0,2,15,15,4,0,0,0,0,0,0,0,0,0,0,0,0,0,0,0,0,0,0,0,0,0,0,0,0,0,0,0,0],"split_type":[0,0,0,0,0,0,0,0,0,0,0,0,0,0,0,0,0,0,0,0,0,0,0,0,0,0,0,0,0,0,0,0,0,0,0,0,0,0,0,0,0,0,0,0,0,0,0,0,0,0,0,0,0,0,0,0,0,0,0],"sum_hessian":[1.513E3,7.94E2,7.19E2,2.16E2,5.78E2,3.61E2,3.58E2,3.7E1,1.79E2,2.02E2,3.76E2,6.1E1,3E2,1.96E2,1.62E2,2.7E1,1E1,1.08E2,7.1E1,1.72E2,3E1,3.13E2,6.3E1,1.1E1,5E1,2.96E2,4E0,1.44E2,5.2E1,7.9E1,8.3E1,4.8E1,6E1,5.4E1,1.7E1,1.5E2,2.2E1,2.6E1,4E0,2.76E2,3.7E1,1.7E1,4.6E1,3E0,8E0,4.5E1,5E0,2.31E2,6.5E1,3E0,1E0,5E1,9.4E1,1.6E1,3.6E1,4.8E1,3.1E1,6.1E1,2.2E1],"tree_param":{"num_deleted":"0","num_feature":"18","num_nodes":"59","size_leaf_vector":"1"}},{"base_weights":[2.0245347E3,-1.6644536E5,1.2470385E5,-5.3926225E5,-1.3709617E5,5.3103938E4,2.5177278E5,-5.964828E5,-1.7406348E4,-2.4364342E5,-9.3746695E4,-5.692039E4,9.698091E4,2.0552836E5,3.2383597E5,-3.5162816E4,-2.4844826E4,-2.789526E5,-8.265536E4,-1.1680263E5,2.5564787E4,-3.9383895E4,-2.699219E5,1.0343501E5,-3.440774E5,2.3685906E5,1.5984666E5,2.3209623E5,3.376148E5,-1.7111748E4,-1.1606637E4,-9.201489E3,3.041408E3,-7.9025557E3,-4.2592974E3,-4.686942E3,3.6387468E3,1.1230436E3,-3.7904302E3,-1.5675456E4,-5.2185063E3,2.8190056E3,7.1893604E3,-6.5883086E3,-2.0864576E4,1.2203244E4,-1.0257688E3,1.7554537E3,8.737216E3,1.2132577E4,4.7458706E3,1.2034857E4,1.7387506E4],"categories":[],"categories_nodes":[],"categories_segments":[],"categories_sizes":[],"default_left":[0,0,0,0,0,0,0,0,0,0,0,0,0,0,0,0,0,0,0,0,0,0,0,0,0,0,0,0,0,0,0,0,0,0,0,0,0,0,0,0,0,0,0,0,0,0,0,0,0,0,0,0,0],"id":9,"left_children":[1,3,5,7,9,11,13,15,-1,17,19,21,23,25,27,-1,-1,29,31,33,35,37,39,41,43,45,47,49,51,-1,-1,-1,-1,-1,-1,-1,-1,-1,-1,-1,-1,-1,-1,-1,-1,-1,-1,-1,-1,-1,-1,-1,-1],"loss_changes":[3.1146421E13,6.874159E12,7.9201944E12,2.9544363E11,2.7022328E12,2.7041118E12,9.798544E11,1.208379E10,0E0,9.432822E11,1.1610885E12,5.870175E11,1.1742434E12,2.3979885E11,7.459255E10,0E0,0E0,3.3239545E11,4.7665204E11,4.4689837E11,3.9545346E11,3.3735167E11,5.387033E10,7.419066E11,3.8280167E10,2.1457587E11,1.4624555E11,4.4795167E9,1.747452E10,0E0,0E0,0E0,0E0,0E0,0E0,0E0,0E0,0E0,0E0,0E0,0E0,0E0,0E0,0E0,0E0,0E0,0E0,0E0,0E0,0E0,0E0,0E0,0E0],"parents":[2147483647,0,0,1,1,2,2,3,3,4,4,5,5,6,6,7,7,9,9,10,10,11,11,12,12,13,13,14,14,17,17,18,18,19,19,20,20,21,21,22,22,23,23,24,24,25,25,26,26,27,27,28,28],"right_children":[2,4,6,8,10,12,14,16,-1,18,20,22,24,26,28,-1,-1,30,32,34,36,38,40,42,44,46,48,50,52,-1,-1,-1,-1,-1,-1,-1,-1,-1,-1,-1,-1,-1,-1,-1,-1,-1,-1,-1,-1,-1,-1,-1,-1],"split_conditions":[2.279609E6,1.083183E6,2.419762E6,4.1E1,1.992251E6,2.159328E6,2.672648E6,7.29703E5,-1.7406348E4,4.6E1,2.211091E6,2.025E3,1E0,2.025E3,1.32E2,-3.5162816E4,-2.4844826E4,4.1E1,2.148651E6,1.992774E6,-5E0,-1E0,2.042144E6,2.501942E6,8E0,1E0,2.483683E6,1E0,2.588956E6,-1.7111748E4,-1.1606637E4,-9.201489E3,3.041408E3,-7.9025557E3,-4.2592974E3,-4.686942E3,3.6387468E3,1.1230436E3,-3.7904302E3,-1.5675456E4,-5.2185063E3,2.8190056E3,7.1893604E3,-6.5883086E3,-2.0864576E4,1.2203244E4,-1.0257688E3,1.7554537E3,8.737216E3,1.2132577E4,4.7458706E3,1.2034857E4,1.7387506E4],"split_indices":[14,15,15,3,14,15,15,15,0,4,15,2,10,2,3,0,0,3,15,15,11,11,15,14,1,10,15,7,14,0,0,0,0,0,0,0,0,0,0,0,0,0,0,0,0,0,0,0,0,0,0,0,0],"split_type":[0,0,0,0,0,0,0,0,0,0,0,0,0,0,0,0,0,0,0,0,0,0,0,0,0,0,0,0,0,0,0,0,0,0,0,0,0,0,0,0,0,0,0,0,0,0,0,0,0,0,0,0,0],"sum_hessian":[1.505E3,6.34E2,8.71E2,4.5E1,5.89E2,5.58E2,3.13E2,3.3E1,1.2E1,1.69E2,4.2E2,1.59E2,3.99E2,1.93E2,1.2E2,1.3E1,2E1,1.38E2,3.1E1,3.52E2,6.8E1,1.48E2,1.1E1,3.94E2,5E0,1.12E2,8.1E1,1.8E1,1.02E2,5.6E1,8.2E1,1.8E1,1.3E1,1.51E2,2.01E2,1.9E1,4.9E1,5.5E1,9.3E1,8E0,3E0,1.83E2,2.11E2,2E0,3E0,1.09E2,3E0,9E0,7.2E1,1.6E1,2E0,1.2E1,9E1],"tree_param":{"num_deleted":"0","num_feature":"18","num_nodes":"53","size_leaf_vector":"1"}},{"base_weights":[-3.6146382E3,-1.3932639E5,1.3120433E5,-3.775062E5,-1.0425842E5,5.1818676E4,2.1476361E5,-5.0892012E5,-2.6128506E5,-1.2505389E5,6.353351E4,-6.271224E4,8.074512E4,1.8450217E5,3.3052497E5,-3.1886879E4,-2.1014975E4,-2.9363884E5,-1.7549831E5,-2.1653886E5,-9.571958E4,4.3599047E4,1.629612E4,-2.0115156E5,-2.1508686E4,8.6606625E4,-3.907773E5,1.1048516E5,2.0222462E5,1.5319862E4,2.1583123E4,-7.1435776E3,-1.5636575E4,-1.7849E3,-1.078839E4,-1.415157E4,-8.33321E3,-6.507527E3,-3.2955486E3,-2.2824414E3,3.7996687E3,6.1892314E3,-1.1377346E4,5.4864956E1,-9.964194E3,-3.3342063E3,4.789546E3,-5.4812563E3,-2.239765E4,5.942171E3,-4.2575127E3,8.985825E3,1.1686984E4],"categories":[],"categories_nodes":[],"categories_segments":[],"categories_sizes":[],"default_left":[0,0,0,0,0,0,0,0,0,0,0,0,0,0,0,0,0,0,0,0,0,0,0,0,0,0,0,0,0,0,0,0,0,0,0,0,0,0,0,0,0,0,0,0,0,0,0,0,0,0,0,0,0],"id":10,"left_children":[1,3,5,7,9,11,13,15,17,19,21,23,25,27,29,-1,-1,31,33,35,37,39,-1,41,43,45,47,49,51,-1,-1,-1,-1,-1,-1,-1,-1,-1,-1,-1,-1,-1,-1,-1,-1,-1,-1,-1,-1,-1,-1,-1,-1],"loss_changes":[2.7572836E13,6.2333555E12,5.003728E12,1.3332434E12,2.2969335E12,1.2938099E12,1.2281593E12,2.3425817E11,9.556931E10,1.5465238E12,3.6762255E11,4.4630468E11,8.9339606E11,3.633148E11,5.0756846E10,0E0,0E0,6.182614E10,8.800217E10,4.204255E11,4.471162E11,2.029566E11,0E0,1.8254935E11,2.4938327E11,4.4001028E11,1.5193407E10,1.065947E11,1.2540025E11,0E0,0E0,0E0,0E0,0E0,0E0,0E0,0E0,0E0,0E0,0E0,0E0,0E0,0E0,0E0,0E0,0E0,0E0,0E0,0E0,0E0,0E0,0E0,0E0],"parents":[2147483647,0,0,1,1,2,2,3,3,4,4,5,5,6,6,7,7,8,8,9,9,10,10,11,11,12,12,13,13,14,14,17,17,18,18,19,19,20,20,21,21,23,23,24,24,25,25,26,26,27,27,28,28],"right_children":[2,4,6,8,10,12,14,16,18,20,22,24,26,28,30,-1,-1,32,34,36,38,40,-1,42,44,46,48,50,52,-1,-1,-1,-1,-1,-1,-1,-1,-1,-1,-1,-1,-1,-1,-1,-1,-1,-1,-1,-1,-1,-1,-1,-1],"split_conditions":[2.339945E6,1.41326E6,2.333408E6,7E0,2.245955E6,2.090089E6,2.726021E6,7.74699E5,4E0,1.978051E6,2.705415E6,1.828932E6,1E0,2.510294E6,2.909267E6,-3.1886879E4,-2.1014975E4,1E0,5E0,1.870392E6,2.018002E6,-5E0,1.629612E4,-6E0,2.025E3,3E0,8E0,2.50908E6,2.579257E6,1.5319862E4,2.1583123E4,-7.1435776E3,-1.5636575E4,-1.7849E3,-1.078839E4,-1.415157E4,-8.33321E3,-6.507527E3,-3.2955486E3,-2.2824414E3,3.7996687E3,6.1892314E3,-1.1377346E4,5.4864956E1,-9.964194E3,-3.3342063E3,4.789546E3,-5.4812563E3,-2.239765E4,5.942171E3,-4.2575127E3,8.985825E3,1.1686984E4],"split_indices":[14,15,15,4,15,15,15,15,0,14,15,15,10,14,15,0,0,0,0,15,15,11,0,11,2,1,1,14,15,0,0,0,0,0,0,0,0,0,0,0,0,0,0,0,0,0,0,0,0,0,0,0,0],"split_type":[0,0,0,0,0,0,0,0,0,0,0,0,0,0,0,0,0,0,0,0,0,0,0,0,0,0,0,0,0,0,0,0,0,0,0,0,0,0,0,0,0,0,0,0,0,0,0,0,0,0,0,0,0],"sum_hessian":[1.505E3,7.5E2,7.55E2,9.5E1,6.55E2,3.88E2,3.67E2,4.3E1,5.2E1,5.83E2,7.2E1,7.8E1,3.1E2,2.93E2,7.4E1,1.5E1,2.8E1,3.6E1,1.6E1,1.4E2,4.43E2,6.8E1,4E0,1.7E1,6.1E1,3.07E2,3E0,5.8E1,2.35E2,6.3E1,1.1E1,5E0,3.1E1,4E0,1.2E1,5.8E1,8.2E1,2.04E2,2.39E2,1.8E1,5E1,1E0,1.6E1,5.5E1,6E0,1.7E1,2.9E2,1E0,2E0,5.6E1,2E0,1.41E2,9.4E1],"tree_param":{"num_deleted":"0","num_feature":"18","num_nodes":"53","size_leaf_vector":"1"}},{"base_weights":[7.400961E2,-8.917641E4,1.772349E5,-2.1585938E5,-1.9655922E4,1.3684498E5,2.8789497E5,-5.3717406E5,-1.8785734E5,-1.18235414E5,-2.776952E3,1.6719669E5,7.356935E4,2.3131875E5,1.5712075E4,-6.468653E5,-2.1407322E4,-2.6713547E5,-1.5500936E5,-2.1508939E5,-4.9892594E4,2.003228E4,-8.408219E4,9.6159125E4,1.8002539E5,-2.2731637E4,1.4343578E5,1.2171492E4,4.0267062E4,-3.3916324E4,-7.5198096E3,-1.8566293E4,-1.18101E4,-1.083654E4,-6.60629E3,-7.022641E2,-1.2931444E4,1.8688762E3,-3.351722E3,2.4304636E3,-1.01693976E3,-4.9013647E3,1.30919375E4,8.87036E3,3.3882068E3,9.184955E3,-5.1375E2,-5.42674E2,-1.0854154E4,4.5216284E3,8.755491E3,7.105609E3,-6.6317065E3],"categories":[],"categories_nodes":[],"categories_segments":[],"categories_sizes":[],"default_left":[0,0,0,0,0,0,0,0,0,0,0,0,0,0,0,0,0,0,0,0,0,0,0,0,0,0,0,0,0,0,0,0,0,0,0,0,0,0,0,0,0,0,0,0,0,0,0,0,0,0,0,0,0],"id":11,"left_children":[1,3,5,7,9,11,13,15,17,19,21,23,25,27,-1,29,-1,31,33,35,37,39,41,43,45,47,49,-1,51,-1,-1,-1,-1,-1,-1,-1,-1,-1,-1,-1,-1,-1,-1,-1,-1,-1,-1,-1,-1,-1,-1,-1,-1],"loss_changes":[2.4074416E13,8.846854E12,2.249014E12,3.102187E12,1.0812199E12,7.1173616E11,1.3003076E11,5.7909182E10,8.153486E11,6.180998E11,1.0327919E12,2.141643E11,8.375583E11,9.894835E10,0E0,8.541648E10,0E0,2.18475E11,3.0327964E11,3.3774843E11,8.777595E10,5.0284108E11,6.141836E11,8.2566775E10,1.5149564E11,1.1999635E11,1.0503966E11,0E0,8.9285485E10,0E0,0E0,0E0,0E0,0E0,0E0,0E0,0E0,0E0,0E0,0E0,0E0,0E0,0E0,0E0,0E0,0E0,0E0,0E0,0E0,0E0,0E0,0E0,0E0],"parents":[2147483647,0,0,1,1,2,2,3,3,4,4,5,5,6,6,7,7,8,8,9,9,10,10,11,11,12,12,13,13,15,15,17,17,18,18,19,19,20,20,21,21,22,22,23,23,24,24,25,25,26,26,28,28],"right_children":[2,4,6,8,10,12,14,16,18,20,22,24,26,28,-1,30,-1,32,34,36,38,40,42,44,46,48,50,-1,52,-1,-1,-1,-1,-1,-1,-1,-1,-1,-1,-1,-1,-1,-1,-1,-1,-1,-1,-1,-1,-1,-1,-1,-1],"split_conditions":[2.266792E6,1.969075E6,2.672648E6,8.67476E5,4.6E1,2.025E3,2.726021E6,7.29703E5,4.6E1,2.02E3,2.024E3,2.317817E6,2.491545E6,1E0,1.5712075E4,4E1,-2.1407322E4,1.282646E6,1.496171E6,8E0,6E0,2.35E2,3.51E2,1E0,2.66303E6,2.2E1,2.579257E6,1.2171492E4,4E0,-3.3916324E4,-7.5198096E3,-1.8566293E4,-1.18101E4,-1.083654E4,-6.60629E3,-7.022641E2,-1.2931444E4,1.8688762E3,-3.351722E3,2.4304636E3,-1.01693976E3,-4.9013647E3,1.30919375E4,8.87036E3,3.3882068E3,9.184955E3,-5.1375E2,-5.42674E2,-1.0854154E4,4.5216284E3,8.755491E3,7.105609E3,-6.6317065E3],"split_indices":[15,15,15,15,3,2,15,15,3,2,2,15,15,7,0,3,0,15,15,3,3,3,3,0,15,6,15,0,12,0,0,0,0,0,0,0,0,0,0,0,0,0,0,0,0,0,0,0,0,0,0,0,0],"split_type":[0,0,0,0,0,0,0,0,0,0,0,0,0,0,0,0,0,0,0,0,0,0,0,0,0,0,0,0,0,0,0,0,0,0,0,0,0,0,0,0,0,0,0,0,0,0,0,0,0,0,0,0,0],"sum_hessian":[1.515E3,1.004E3,5.11E2,3.55E2,6.49E2,3.76E2,1.35E2,2.7E1,3.28E2,9.4E1,5.55E2,2.53E2,1.23E2,4.6E1,8.9E1,1.1E1,1.6E1,9.4E1,2.34E2,3.8E1,5.6E1,4.34E2,1.21E2,4E1,2.13E2,5.2E1,7.1E1,4.3E1,3E0,1E1,1E0,1.9E1,7.5E1,6.1E1,1.73E2,7E0,3.1E1,9E0,4.7E1,2.54E2,1.8E2,1.17E2,4E0,9E0,3.1E1,2.09E2,4E0,5E1,2E0,2.8E1,4.3E1,2E0,1E0],"tree_param":{"num_deleted":"0","num_feature":"18","num_nodes":"53","size_leaf_vector":"1"}},{"base_weights":[-1.85652E3,-1.1328824E5,1.3714528E5,-2.518237E5,-6.038054E4,8.36799E4,1.9483392E5,-3.6016478E5,-1.7882939E5,-9.276434E4,-8.363773E3,8.9411734E4,-2.5984742E5,2.183136E5,4.9209918E4,-2.3144888E5,-4.2178353E5,-2.0514895E5,-6.622437E4,-2.221831E5,-8.325511E4,3.725011E2,-2.2681203E5,-1.3979744E5,9.8091336E4,5.487192E3,-2.3603951E4,4.0283E4,2.2835244E5,-7.062674E3,1.1445058E4,-6.7154065E2,-1.4597835E4,-2.5614016E4,-1.5559711E4,-1.0606114E4,1.8952344E3,4.3335854E3,-5.593146E3,-1.752839E4,-3.8353684E3,-4.6254517E3,1.1183108E3,-7.0987056E3,7.8234534E2,-1.6205094E3,-1.59305625E4,-4.9329297E3,-1.2202038E4,3.469156E3,6.105393E3,4.0595396E3,-5.1369033E3,1.0078774E4,1.3452034E4,3.9284802E3,-5.3695537E3],"categories":[],"categories_nodes":[],"categories_segments":[],"categories_sizes":[],"default_left":[0,0,0,0,0,0,0,0,0,0,0,0,0,0,0,0,0,0,0,0,0,0,0,0,0,0,0,0,0,0,0,0,0,0,0,0,0,0,0,0,0,0,0,0,0,0,0,0,0,0,0,0,0,0,0,0,0],"id":12,"left_children":[1,3,5,7,9,11,13,15,17,19,21,23,25,27,29,31,33,35,37,39,41,43,45,47,49,-1,-1,51,53,55,-1,-1,-1,-1,-1,-1,-1,-1,-1,-1,-1,-1,-1,-1,-1,-1,-1,-1,-1,-1,-1,-1,-1,-1,-1,-1,-1],"loss_changes":[2.335778E13,6.1196636E12,2.0532911E12,1.7624046E12,1.02171594E12,7.1239834E11,1.0902412E12,6.3205854E11,4.013346E11,4.4177398E11,4.466557E11,7.000713E11,5.2244136E11,4.858619E11,4.667544E11,4.1821628E11,4.5106804E11,1.9956289E11,2.050781E11,4.4003046E11,3.441631E11,4.9360418E11,1.5028725E11,3.167314E10,2.2112187E11,0E0,0E0,1.0195219E11,2.312194E11,3.1772626E11,0E0,0E0,0E0,0E0,0E0,0E0,0E0,0E0,0E0,0E0,0E0,0E0,0E0,0E0,0E0,0E0,0E0,0E0,0E0,0E0,0E0,0E0,0E0,0E0,0E0,0E0,0E0],"parents":[2147483647,0,0,1,1,2,2,3,3,4,4,5,5,6,6,7,7,8,8,9,9,10,10,11,11,12,12,13,13,14,14,15,15,16,16,17,17,18,18,19,19,20,20,21,21,22,22,23,23,24,24,27,27,28,28,29,29],"right_children":[2,4,6,8,10,12,14,16,18,20,22,24,26,28,30,32,34,36,38,40,42,44,46,48,50,-1,-1,52,54,56,-1,-1,-1,-1,-1,-1,-1,-1,-1,-1,-1,-1,-1,-1,-1,-1,-1,-1,-1,-1,-1,-1,-1,-1,-1,-1,-1],"split_conditions":[2.395746E6,1.992251E6,2.624783E6,7E0,2.247421E6,1E0,4.4E1,2.022E3,4.7E1,3E0,1E0,2E0,7E0,3E0,5.1E1,3E0,2.023E3,6E0,1.2E1,2.023E3,4.8E1,6E0,1E0,2E1,2.501942E6,5.487192E3,-2.3603951E4,5E0,2.775176E6,4.8E1,1.1445058E4,-6.7154065E2,-1.4597835E4,-2.5614016E4,-1.5559711E4,-1.0606114E4,1.8952344E3,4.3335854E3,-5.593146E3,-1.752839E4,-3.8353684E3,-4.6254517E3,1.1183108E3,-7.0987056E3,7.8234534E2,-1.6205094E3,-1.59305625E4,-4.9329297E3,-1.2202038E4,3.469156E3,6.105393E3,4.0595396E3,-5.1369033E3,1.0078774E4,1.3452034E4,3.9284802E3,-5.3695537E3],"split_indices":[14,14,14,4,14,10,4,2,4,4,10,1,1,1,4,4,2,0,1,2,4,4,0,6,14,0,0,11,14,4,0,0,0,0,0,0,0,0,0,0,0,0,0,0,0,0,0,0,0,0,0,0,0,0,0,0,0],"split_type":[0,0,0,0,0,0,0,0,0,0,0,0,0,0,0,0,0,0,0,0,0,0,0,0,0,0,0,0,0,0,0,0,0,0,0,0,0,0,0,0,0,0,0,0,0,0,0,0,0,0,0,0,0,0,0,0,0],"sum_hessian":[1.506E3,8.36E2,6.7E2,2.3E2,6.06E2,3.49E2,3.21E2,9.1E1,1.39E2,3.73E2,2.33E2,3.44E2,5E0,2.76E2,4.5E1,3.1E1,6E1,1.12E2,2.7E1,2.4E1,3.49E2,2.25E2,8E0,1.2E1,3.32E2,2E0,3E0,1.5E1,2.61E2,3.5E1,1E1,7E0,2.4E1,3.1E1,2.9E1,1.09E2,3E0,6E0,2.1E1,1.2E1,1.2E1,3.21E2,2.8E1,2.1E1,2.04E2,3E0,5E0,1E1,2E0,1.53E2,1.79E2,1.2E1,3E0,1.61E2,1E2,1.9E1,1.6E1],"tree_param":{"num_deleted":"0","num_feature":"18","num_nodes":"57","size_leaf_vector":"1"}},{"base_weights":[-2.1426907E2,-1.1479817E5,1.257493E5,-2.2394861E5,-5.782128E4,4.595829E4,1.926652E5,-4.318289E5,-1.9356578E5,-7.664398E4,5.4389707E4,-9.3398875E4,7.767115E4,1.5177852E5,2.5887633E5,-5.318903E5,-1.675957E4,-2.4558419E5,-1.3488852E5,-6.311202E4,-1.7268053E5,-2.8279863E4,1.1515576E5,-2.3082495E5,-4.0580566E4,8.231039E4,-1.0905296E5,1.7261977E5,8.849965E4,2.2953789E5,3.2157984E5,-2.74846E4,-7.0666626E3,-1.4604016E4,-1.0391282E4,-8.0335234E3,-1.782334E3,-4.1964775E3,-1.2009125E3,-1.2599415E4,-5.814245E3,2.831415E2,-5.971146E3,1.0534106E4,2.6522449E3,-5.75151E3,-1.6048625E4,-2.5693976E2,-1.0414331E4,4.3634688E3,-3.4220945E3,-6.0235004E2,-1.1718929E4,6.986258E3,9.801917E3,1.4738438E2,6.2687773E3,1.3471356E4,9.876359E3,3.7346938E3,1.6274664E4],"categories":[],"categories_nodes":[],"categories_segments":[],"categories_sizes":[],"default_left":[0,0,0,0,0,0,0,0,0,0,0,0,0,0,0,0,0,0,0,0,0,0,0,0,0,0,0,0,0,0,0,0,0,0,0,0,0,0,0,0,0,0,0,0,0,0,0,0,0,0,0,0,0,0,0,0,0,0,0,0,0],"id":13,"left_children":[1,3,5,7,9,11,13,15,17,19,21,23,25,27,29,31,-1,33,35,37,39,41,43,45,47,49,51,53,55,57,59,-1,-1,-1,-1,-1,-1,-1,-1,-1,-1,-1,-1,-1,-1,-1,-1,-1,-1,-1,-1,-1,-1,-1,-1,-1,-1,-1,-1,-1,-1],"loss_changes":[2.1967634E13,4.9436353E12,3.8621277E12,1.6406786E12,1.1130282E12,1.4745E12,1.02732766E12,1.5048429E11,6.9942536E11,5.739048E11,3.8504284E11,4.40667E11,2.4373192E11,3.091506E11,2.002885E11,2.6598965E10,0E0,1.6050658E11,2.8851713E11,3.2026303E11,2.1669125E11,1.0276641E11,2.4988634E11,1.4053487E11,2.7234442E11,2.040812E11,8.227776E10,1.1435193E11,1.9838317E11,8.08536E10,1.9165348E10,0E0,0E0,0E0,0E0,0E0,0E0,0E0,0E0,0E0,0E0,0E0,0E0,0E0,0E0,0E0,0E0,0E0,0E0,0E0,0E0,0E0,0E0,0E0,0E0,0E0,0E0,0E0,0E0,0E0,0E0],"parents":[2147483647,0,0,1,1,2,2,3,3,4,4,5,5,6,6,7,7,8,8,9,9,10,10,11,11,12,12,13,13,14,14,15,15,17,17,18,18,19,19,20,20,21,21,22,22,23,23,24,24,25,25,26,26,27,27,28,28,29,29,30,30],"right_children":[2,4,6,8,10,12,14,16,18,20,22,24,26,28,30,32,-1,34,36,38,40,42,44,46,48,50,52,54,56,58,60,-1,-1,-1,-1,-1,-1,-1,-1,-1,-1,-1,-1,-1,-1,-1,-1,-1,-1,-1,-1,-1,-1,-1,-1,-1,-1,-1,-1,-1,-1],"split_conditions":[2.36686E6,2.02749E6,2.321965E6,9.74236E5,2.245955E6,2.090089E6,2.641296E6,7.74699E5,1.870392E6,1E0,1E0,1.828932E6,1E0,2.025E3,2.800099E6,4.1E1,-1.675957E4,4.6E1,3.21E2,2.253892E6,2.58E2,1.1E1,4E0,2.454485E6,2.025E3,3.1E1,1E0,2.629323E6,2.483683E6,2.025E3,2.485646E6,-2.74846E4,-7.0666626E3,-1.4604016E4,-1.0391282E4,-8.0335234E3,-1.782334E3,-4.1964775E3,-1.2009125E3,-1.2599415E4,-5.814245E3,2.831415E2,-5.971146E3,1.0534106E4,2.6522449E3,-5.75151E3,-1.6048625E4,-2.5693976E2,-1.0414331E4,4.3634688E3,-3.4220945E3,-6.0235004E2,-1.1718929E4,6.986258E3,9.801917E3,1.4738438E2,6.2687773E3,1.3471356E4,9.876359E3,3.7346938E3,1.6274664E4],"split_indices":[14,14,15,15,15,15,15,15,15,9,6,15,9,2,15,3,0,3,3,14,3,1,6,14,2,6,12,14,15,2,14,0,0,0,0,0,0,0,0,0,0,0,0,0,0,0,0,0,0,0,0,0,0,0,0,0,0,0,0,0,0],"split_type":[0,0,0,0,0,0,0,0,0,0,0,0,0,0,0,0,0,0,0,0,0,0,0,0,0,0,0,0,0,0,0,0,0,0,0,0,0,0,0,0,0,0,0,0,0,0,0,0,0,0,0,0,0,0,0,0,0,0,0,0,0],"sum_hessian":[1.52E3,7.96E2,7.24E2,2.72E2,5.24E2,3.31E2,3.93E2,3.3E1,2.39E2,4.49E2,7.5E1,6.1E1,2.7E2,2.45E2,1.48E2,1.4E1,1.9E1,1.25E2,1.14E2,3.95E2,5.4E1,3.2E1,4.3E1,1.6E1,4.5E1,2.64E2,6E0,1.83E2,6.2E1,1.04E2,4.4E1,1.3E1,1E0,5.3E1,7.2E1,9E1,2.4E1,2.57E2,1.38E2,2.1E1,3.3E1,2.4E1,8E0,1.6E1,2.7E1,8E0,8E0,3.8E1,7E0,2.56E2,8E0,4E0,2E0,7.9E1,1.04E2,1.9E1,4.3E1,4.3E1,6.1E1,1E0,4.3E1],"tree_param":{"num_deleted":"0","num_feature":"18","num_nodes":"61","size_leaf_vector":"1"}},{"base_weights":[6.2258716E2,-7.6374E4,1.589611E5,-2.1825383E5,-2.9780906E4,1.1249797E5,2.1308223E5,-4.2723575E5,-1.8257825E5,-3.700951E4,2.0628652E5,1.4453684E5,2.611799E4,1.8151622E5,2.7032047E5,-2.8827363E4,-3.7131406E5,-2.5064477E5,-1.4846055E5,-1.0381963E5,-1.7444885E4,2.9087716E5,6.723098E4,1.6806139E5,1.1375603E5,-1.619872E4,1.0486417E5,1.9921894E5,8.503388E4,1.3262612E5,2.7783188E5,-1.92902E4,-9.215062E3,-1.4808547E4,-9.767792E3,-4.7878003E3,-1.1272387E4,2.8814783E3,-5.9386973E3,1.2780079E3,-3.3378215E3,8.533706E3,1.6934643E4,6.3504546E3,-5.7293833E3,4.1444116E3,9.556757E3,7.3948984E3,3.353375E3,-1.9542838E3,1.4590883E3,6.5754663E3,-2.935625E2,1.153564E4,8.61971E3,-4.8721E3,8.831839E3,7.4893174E3,1.170625E3,1.44711875E4,9.691097E3],"categories":[],"categories_nodes":[],"categories_segments":[],"categories_sizes":[],"default_left":[0,0,0,0,0,0,0,0,0,0,0,0,0,0,0,0,0,0,0,0,0,0,0,0,0,0,0,0,0,0,0,0,0,0,0,0,0,0,0,0,0,0,0,0,0,0,0,0,0,0,0,0,0,0,0,0,0,0,0,0,0],"id":14,"left_children":[1,3,5,7,9,11,13,15,17,19,21,23,25,27,29,-1,31,33,35,37,39,41,43,45,47,49,51,53,55,57,59,-1,-1,-1,-1,-1,-1,-1,-1,-1,-1,-1,-1,-1,-1,-1,-1,-1,-1,-1,-1,-1,-1,-1,-1,-1,-1,-1,-1,-1,-1],"loss_changes":[1.8482301E13,6.7363327E12,1.2232887E12,1.800795E12,1.319886E12,7.406871E11,3.6287965E11,8.6510666E10,4.6672223E11,9.746039E11,2.509884E11,1.228066E11,2.4828735E11,2.3925988E11,4.486018E10,0E0,7.480017E9,1.20854675E11,5.7487576E11,4.1487224E11,1.2295598E12,2.266012E10,1.2324144E11,1.9837066E11,1.30356085E11,5.203302E10,7.7486785E10,6.6672656E10,4.3509478E11,7.737909E9,1.5967191E10,0E0,0E0,0E0,0E0,0E0,0E0,0E0,0E0,0E0,0E0,0E0,0E0,0E0,0E0,0E0,0E0,0E0,0E0,0E0,0E0,0E0,0E0,0E0,0E0,0E0,0E0,0E0,0E0,0E0,0E0],"parents":[2147483647,0,0,1,1,2,2,3,3,4,4,5,5,6,6,7,7,8,8,9,9,10,10,11,11,12,12,13,13,14,14,16,16,17,17,18,18,19,19,20,20,21,21,22,22,23,23,24,24,25,25,26,26,27,27,28,28,29,29,30,30],"right_children":[2,4,6,8,10,12,14,16,18,20,22,24,26,28,30,-1,32,34,36,38,40,42,44,46,48,50,52,54,56,58,60,-1,-1,-1,-1,-1,-1,-1,-1,-1,-1,-1,-1,-1,-1,-1,-1,-1,-1,-1,-1,-1,-1,-1,-1,-1,-1,-1,-1,-1,-1],"split_conditions":[2.279898E6,1.818203E6,2.579257E6,9.21897E5,3.55E2,2.025E3,2.744596E6,6.19345E5,4.6E1,6.7E1,-1E0,2.024E3,2.475459E6,3.14E2,1.3E2,-2.8827363E4,6E0,3E0,2.24E2,6E0,2.34E2,2.023E3,3.63E2,1.35E2,1.84E2,4E0,3.02E2,2.025E3,3E0,1E0,1.1E1,-1.92902E4,-9.215062E3,-1.4808547E4,-9.767792E3,-4.7878003E3,-1.1272387E4,2.8814783E3,-5.9386973E3,1.2780079E3,-3.3378215E3,8.533706E3,1.6934643E4,6.3504546E3,-5.7293833E3,4.1444116E3,9.556757E3,7.3948984E3,3.353375E3,-1.9542838E3,1.4590883E3,6.5754663E3,-2.935625E2,1.153564E4,8.61971E3,-4.8721E3,8.831839E3,7.4893174E3,1.170625E3,1.44711875E4,9.691097E3],"split_indices":[15,15,15,15,3,2,15,15,3,3,11,2,15,3,3,0,0,0,3,3,3,2,3,3,3,12,3,2,0,7,1,0,0,0,0,0,0,0,0,0,0,0,0,0,0,0,0,0,0,0,0,0,0,0,0,0,0,0,0,0,0],"split_type":[0,0,0,0,0,0,0,0,0,0,0,0,0,0,0,0,0,0,0,0,0,0,0,0,0,0,0,0,0,0,0,0,0,0,0,0,0,0,0,0,0,0,0,0,0,0,0,0,0,0,0,0,0,0,0,0,0,0,0,0,0],"sum_hessian":[1.514E3,1.019E3,4.95E2,2.51E2,7.68E2,2.68E2,2.27E2,3.5E1,2.16E2,7.46E2,2.2E1,1.95E2,7.3E1,1.49E2,7.8E1,7E0,2.8E1,7E1,1.46E2,1.68E2,5.78E2,1.3E1,9E0,1.08E2,8.7E1,4.8E1,2.5E1,1.25E2,2.4E1,5E0,7.3E1,2.5E1,3E0,3.6E1,3.4E1,8.8E1,5.8E1,1.4E1,1.54E2,3.09E2,2.69E2,5E0,8E0,7E0,2E0,2.4E1,8.4E1,4.9E1,3.8E1,3.2E1,1.6E1,2E1,5E0,5.4E1,7.1E1,8E0,1.6E1,4E0,1E0,6.2E1,1.1E1],"tree_param":{"num_deleted":"0","num_feature":"18","num_nodes":"61","size_leaf_vector":"1"}},{"base_weights":[1.3265111E3,-6.931822E4,1.6356186E5,-1.7669639E5,-8.400017E3,1.2818789E5,2.4919225E5,-4.360068E5,-1.5268894E5,6.4041514E3,-1.391557E5,1.1426791E5,1.9260834E5,2.2152516E5,1.5129589E4,-4.9407672E5,-3.2605434E5,-1.2763122E5,-2.4871103E5,-7.0069016E4,1.8413373E4,-2.2584778E5,-1.0647084E5,8.3946125E4,1.3821036E5,1.5271525E5,2.3429953E5,1.7011142E5,1.1628827E4,-2.53643E4,-6.4077407E3,-3.570153E3,-1.7007518E4,-9.151763E3,-5.056692E3,-1.610694E4,-1.0498002E4,-8.240761E2,-5.255357E3,1.1340715E3,-1.0247009E4,2.41453E3,-1.5381117E4,-8.692633E3,-3.853545E3,4.7793716E3,6.036719E0,4.6578516E3,8.304534E3,3.0678125E3,8.1787627E3,1.8107037E4,9.729737E3,8.962479E3,2.9289375E3],"categories":[],"categories_nodes":[],"categories_segments":[],"categories_sizes":[],"default_left":[0,0,0,0,0,0,0,0,0,0,0,0,0,0,0,0,0,0,0,0,0,0,0,0,0,0,0,0,0,0,0,0,0,0,0,0,0,0,0,0,0,0,0,0,0,0,0,0,0,0,0,0,0,0,0],"id":15,"left_children":[1,3,5,7,9,11,13,15,17,19,21,23,25,27,-1,29,31,33,35,37,39,41,43,45,47,49,51,53,-1,-1,-1,-1,-1,-1,-1,-1,-1,-1,-1,-1,-1,-1,-1,-1,-1,-1,-1,-1,-1,-1,-1,-1,-1,-1,-1],"loss_changes":[1.7455089E13,6.9388196E12,1.3674941E12,2.3239726E12,1.3133156E12,2.7301616E11,1.3094145E11,4.3222303E10,8.176088E11,5.615039E11,1.7146656E11,1.8658964E11,5.902054E10,1.270979E10,0E0,2.6826244E10,2.5966019E10,3.954825E11,1.3723291E11,1.5410885E11,5.079833E11,4.1837114E11,8.961412E10,1.20016404E11,1.7419888E11,2.1712667E10,6.1503046E10,9.883746E9,0E0,0E0,0E0,0E0,0E0,0E0,0E0,0E0,0E0,0E0,0E0,0E0,0E0,0E0,0E0,0E0,0E0,0E0,0E0,0E0,0E0,0E0,0E0,0E0,0E0,0E0,0E0],"parents":[2147483647,0,0,1,1,2,2,3,3,4,4,5,5,6,6,7,7,8,8,9,9,10,10,11,11,12,12,13,13,15,15,16,16,17,17,18,18,19,19,20,20,21,21,22,22,23,23,24,24,25,25,26,26,27,27],"right_children":[2,4,6,8,10,12,14,16,18,20,22,24,26,28,-1,30,32,34,36,38,40,42,44,46,48,50,52,54,-1,-1,-1,-1,-1,-1,-1,-1,-1,-1,-1,-1,-1,-1,-1,-1,-1,-1,-1,-1,-1,-1,-1,-1,-1,-1,-1],"split_conditions":[2.31274E6,1.992774E6,2.672648E6,8.67476E5,1E0,6E0,2.800099E6,7.74699E5,1E0,4.4E1,4.4E1,2.449389E6,3E0,1.33E2,1.5129589E4,2.1E1,-1.4E1,1.538874E6,1.633547E6,2E0,1E0,3E0,-5E0,5E0,3E0,2.358565E6,4E0,1E0,1.1628827E4,-2.53643E4,-6.4077407E3,-3.570153E3,-1.7007518E4,-9.151763E3,-5.056692E3,-1.610694E4,-1.0498002E4,-8.240761E2,-5.255357E3,1.1340715E3,-1.0247009E4,2.41453E3,-1.5381117E4,-8.692633E3,-3.853545E3,4.7793716E3,6.036719E0,4.6578516E3,8.304534E3,3.0678125E3,8.1787627E3,1.8107037E4,9.729737E3,8.962479E3,2.9289375E3],"split_indices":[15,15,15,15,9,0,15,15,9,3,3,15,11,3,0,6,11,15,15,12,10,3,11,0,0,15,11,7,0,0,0,0,0,0,0,0,0,0,0,0,0,0,0,0,0,0,0,0,0,0,0,0,0,0,0],"split_type":[0,0,0,0,0,0,0,0,0,0,0,0,0,0,0,0,0,0,0,0,0,0,0,0,0,0,0,0,0,0,0,0,0,0,0,0,0,0,0,0,0,0,0,0,0,0,0,0,0,0,0,0,0,0,0],"sum_hessian":[1.521E3,1.06E3,4.61E2,3.83E2,6.77E2,3.28E2,1.33E2,3.1E1,3.52E2,6.09E2,6.8E1,2.72E2,5.6E1,9.1E1,4.2E1,1.8E1,1.3E1,2.81E2,7.1E1,8.2E1,5.27E2,1.7E1,5.1E1,1.22E2,1.5E2,3.1E1,2.5E1,1.9E1,7.2E1,1.7E1,1E0,1E0,1.2E1,8.9E1,1.92E2,2.2E1,4.9E1,3.3E1,4.9E1,5.18E2,9E0,4E0,1.3E1,1.4E1,3.7E1,1.07E2,1.5E1,5.9E1,9.1E1,4E0,2.7E1,4E0,2.1E1,1.7E1,2E0],"tree_param":{"num_deleted":"0","num_feature":"18","num_nodes":"55","size_leaf_vector":"1"}},{"base_weights":[-1.7522119E2,-1.1898072E5,8.972809E4,-2.3086823E5,-7.435511E4,2.3162008E4,1.5733852E5,-3.5510925E5,-1.737385E5,-8.60839E4,1.0454506E5,-4.2059605E4,6.4825984E4,1.18113695E5,2.2396762E5,-4.647211E5,-1.5049963E4,-2.0621878E5,-8.154177E4,-7.157652E4,-1.434574E5,-8.910036E3,1.972842E5,1.7280992E4,-8.120765E4,6.931912E4,-1.2227872E4,9.49992E4,1.5066102E5,-5.968294E3,2.2695278E5,-2.3907365E4,-6.247547E3,-1.0867955E4,-5.1200103E3,-6.5945093E3,1.7007858E2,-2.4115415E3,-5.397851E3,-1.0877674E4,-5.6714937E3,2.3950085E3,-1.1659042E4,3.581595E3,1.1659949E4,-6.5452924E2,9.737261E3,-2.5158982E3,-8.975128E3,-2.388882E3,3.8326692E3,-8.0675063E3,4.881312E3,8.108388E3,3.9086523E3,1.0639706E4,1.6832826E4],"categories":[],"categories_nodes":[],"categories_segments":[],"categories_sizes":[],"default_left":[0,0,0,0,0,0,0,0,0,0,0,0,0,0,0,0,0,0,0,0,0,0,0,0,0,0,0,0,0,0,0,0,0,0,0,0,0,0,0,0,0,0,0,0,0,0,0,0,0,0,0,0,0,0,0,0,0],"id":16,"left_children":[1,3,5,7,9,11,13,15,17,19,21,23,25,27,29,31,-1,33,35,37,39,41,43,45,47,49,-1,51,53,-1,55,-1,-1,-1,-1,-1,-1,-1,-1,-1,-1,-1,-1,-1,-1,-1,-1,-1,-1,-1,-1,-1,-1,-1,-1,-1,-1],"loss_changes":[1.604287E13,3.213335E12,3.8443355E12,1.2443105E12,9.826025E11,1.1766399E12,1.08167745E12,1.9819187E11,3.6649016E11,3.5263165E11,3.0688792E11,3.9400194E11,3.8393912E11,1.8806001E11,1.8697473E11,1.7806131E10,0E0,8.646007E10,1.5013531E11,2.920579E11,1.6889125E11,1.8954158E11,5.549995E10,3.6906035E11,3.0067032E11,2.2781388E11,0E0,1.2350246E11,7.9074165E10,0E0,1.6911696E11,0E0,0E0,0E0,0E0,0E0,0E0,0E0,0E0,0E0,0E0,0E0,0E0,0E0,0E0,0E0,0E0,0E0,0E0,0E0,0E0,0E0,0E0,0E0,0E0,0E0,0E0],"parents":[2147483647,0,0,1,1,2,2,3,3,4,4,5,5,6,6,7,7,8,8,9,9,10,10,11,11,12,12,13,13,14,14,15,15,17,17,18,18,19,19,20,20,21,21,22,22,23,23,24,24,25,25,27,27,28,28,30,30],"right_children":[2,4,6,8,10,12,14,16,18,20,22,24,26,28,30,32,-1,34,36,38,40,42,44,46,48,50,-1,52,54,-1,56,-1,-1,-1,-1,-1,-1,-1,-1,-1,-1,-1,-1,-1,-1,-1,-1,-1,-1,-1,-1,-1,-1,-1,-1,-1,-1],"split_conditions":[2.281882E6,1.687357E6,2.284299E6,1.758401E6,2.38203E6,2.163592E6,2.636399E6,7.74699E5,2.09055E6,1E0,2.139036E6,-1E0,1E0,2.633264E6,2.355913E6,4.7E1,-1.5049963E4,2E1,6E0,5E0,4.4E1,4E0,4E0,2.580105E6,1.1E1,4.1E1,-1.2227872E4,2E0,3.03E2,-5.968294E3,2.909267E6,-2.3907365E4,-6.247547E3,-1.0867955E4,-5.1200103E3,-6.5945093E3,1.7007858E2,-2.4115415E3,-5.397851E3,-1.0877674E4,-5.6714937E3,2.3950085E3,-1.1659042E4,3.581595E3,1.1659949E4,-6.5452924E2,9.737261E3,-2.5158982E3,-8.975128E3,-2.388882E3,3.8326692E3,-8.0675063E3,4.881312E3,8.108388E3,3.9086523E3,1.0639706E4,1.6832826E4],"split_indices":[14,15,15,14,15,15,15,15,14,9,14,11,10,14,14,3,0,12,12,0,3,6,1,14,1,3,0,1,3,0,15,0,0,0,0,0,0,0,0,0,0,0,0,0,0,0,0,0,0,0,0,0,0,0,0,0,0],"split_type":[0,0,0,0,0,0,0,0,0,0,0,0,0,0,0,0,0,0,0,0,0,0,0,0,0,0,0,0,0,0,0,0,0,0,0,0,0,0,0,0,0,0,0,0,0,0,0,0,0,0,0,0,0,0,0,0,0],"sum_hessian":[1.5E3,6.46E2,8.54E2,1.83E2,4.63E2,4.31E2,4.23E2,5.6E1,1.27E2,4.35E2,2.8E1,1.68E2,2.63E2,2.68E2,1.55E2,1.6E1,4E1,9.3E1,3.4E1,3.49E2,8.6E1,1.3E1,1.5E1,6.7E1,1.01E2,2.6E2,3E0,1.59E2,1.09E2,1E0,1.54E2,1.5E1,1E0,8.3E1,1E1,2.1E1,1.3E1,2.14E2,1.35E2,2.3E1,6.3E1,1.1E1,2E0,4E0,1.1E1,5.8E1,9E0,7.8E1,2.3E1,1.5E1,2.45E2,1E0,1.58E2,9.3E1,1.6E1,1.39E2,1.5E1],"tree_param":{"num_deleted":"0","num_feature":"18","num_nodes":"57","size_leaf_vector":"1"}},{"base_weights":[-5.069295E3,-1.5456334E5,5.6302273E4,-3.0856344E5,-1.2189511E5,3.0617742E3,1.4578678E5,-4.467448E5,-2.4768064E5,-1.0037438E5,-1.9924169E5,1.5226391E4,-1.1235986E5,1.2221285E5,2.3378166E5,-2.282079E4,-6.0913594E3,-1.5059104E4,-1.8932828E5,-9.410135E4,-3.369564E5,-1.2756092E4,-1.6806952E5,-6.5195E4,2.7207607E4,-1.4153164E5,-7.629933E3,8.055743E4,1.422676E5,2.4029422E5,4.5085062E4,-9.882795E3,-2.5635166E3,-3.504093E3,-6.557017E3,-4.4728706E3,-2.0903227E4,-4.3419365E3,-9.614929E3,2.0918933E3,-4.9893022E3,-8.2924524E2,2.0187676E3,-2.9025596E3,-9.999062E3,-4.4462344E3,1.00520734E3,6.7119253E3,9.41174E2,4.871679E3,7.8114844E3,1.1168819E4,1.5877361E4,-6.9540815E3,7.641725E3],"categories":[],"categories_nodes":[],"categories_segments":[],"categories_sizes":[],"default_left":[0,0,0,0,0,0,0,0,0,0,0,0,0,0,0,0,0,0,0,0,0,0,0,0,0,0,0,0,0,0,0,0,0,0,0,0,0,0,0,0,0,0,0,0,0,0,0,0,0,0,0,0,0,0,0],"id":17,"left_children":[1,3,5,7,9,11,13,15,17,19,21,23,25,27,29,-1,-1,-1,31,33,35,-1,37,39,41,43,45,47,49,51,53,-1,-1,-1,-1,-1,-1,-1,-1,-1,-1,-1,-1,-1,-1,-1,-1,-1,-1,-1,-1,-1,-1,-1,-1],"loss_changes":[1.3807429E13,2.165926E12,5.0829543E12,5.287282E11,5.842351E11,9.4243095E11,7.9703415E11,1.3526368E10,1.1468407E11,3.9274073E11,9.299034E10,5.866463E11,1.944503E11,2.5252279E11,9.1165295E10,0E0,0E0,0E0,2.3207215E10,2.3991366E11,1.03120175E11,0E0,8.761259E10,2.9666273E11,3.0571666E11,2.3236064E11,3.560728E10,3.454373E11,1.17484814E11,3.3623638E10,1.006319E11,0E0,0E0,0E0,0E0,0E0,0E0,0E0,0E0,0E0,0E0,0E0,0E0,0E0,0E0,0E0,0E0,0E0,0E0,0E0,0E0,0E0,0E0,0E0,0E0],"parents":[2147483647,0,0,1,1,2,2,3,3,4,4,5,5,6,6,7,7,8,8,9,9,10,10,11,11,12,12,13,13,14,14,18,18,19,19,20,20,22,22,23,23,24,24,25,25,26,26,27,27,28,28,29,29,30,30],"right_children":[2,4,6,8,10,12,14,16,18,20,22,24,26,28,30,-1,-1,-1,32,34,36,-1,38,40,42,44,46,48,50,52,54,-1,-1,-1,-1,-1,-1,-1,-1,-1,-1,-1,-1,-1,-1,-1,-1,-1,-1,-1,-1,-1,-1,-1,-1],"split_conditions":[2.023231E6,1.246901E6,2.354474E6,7.74699E5,1E0,1E0,2.726021E6,2.1E1,7E0,1E0,-5E0,7E0,2.203639E6,3E0,1.7E1,-2.282079E4,-6.0913594E3,-1.5059104E4,1E0,5E0,1E0,-1.2756092E4,2E0,2E0,2.159328E6,2.180816E6,-5E0,1E0,2.435811E6,2.909267E6,3E0,-9.882795E3,-2.5635166E3,-3.504093E3,-6.557017E3,-4.4728706E3,-2.0903227E4,-4.3419365E3,-9.614929E3,2.0918933E3,-4.9893022E3,-8.2924524E2,2.0187676E3,-2.9025596E3,-9.999062E3,-4.4462344E3,1.00520734E3,6.7119253E3,9.41174E2,4.871679E3,7.8114844E3,1.1168819E4,1.5877361E4,-6.9540815E3,7.641725E3],"split_indices":[15,15,15,15,9,9,15,6,4,10,11,4,15,0,12,0,0,0,7,0,0,0,11,4,15,15,11,0,15,15,0,0,0,0,0,0,0,0,0,0,0,0,0,0,0,0,0,0,0,0,0,0,0,0,0],"split_type":[0,0,0,0,0,0,0,0,0,0,0,0,0,0,0,0,0,0,0,0,0,0,0,0,0,0,0,0,0,0,0,0,0,0,0,0,0,0,0,0,0,0,0,0,0,0,0,0,0,0,0,0,0,0,0],"sum_hessian":[1.503E3,4.37E2,1.066E3,7.5E1,3.62E2,6.69E2,3.97E2,2.1E1,5.4E1,2.85E2,7.7E1,6.06E2,6.3E1,3.15E2,8.2E1,2E1,1E0,2.6E1,2.8E1,2.79E2,6E0,2.5E1,5.2E1,7.8E1,5.28E2,4.9E1,1.4E1,1.04E2,2.11E2,7.9E1,3E0,2.6E1,2E0,1.71E2,1.08E2,2E0,4E0,1.3E1,3.9E1,1.9E1,5.9E1,1.22E2,4.06E2,2.1E1,2.8E1,3E0,1.1E1,5.5E1,4.9E1,5.2E1,1.59E2,6.8E1,1.1E1,1E0,2E0],"tree_param":{"num_deleted":"0","num_feature":"18","num_nodes":"55","size_leaf_vector":"1"}},{"base_weights":[1.352968E3,-1.0603099E5,8.474797E4,-2.3449097E5,-7.323884E4,4.008867E4,1.6483153E5,-3.0682534E5,-1.5312383E5,-8.4568875E4,6.2037387E4,-5.0054848E4,6.2940316E4,1.3930456E5,2.2735603E5,-4.2842684E5,-2.6366078E5,-1.7036628E5,9.130735E4,-1.19538914E5,-5.6615777E4,-1.3053579E4,1.1889951E5,-1.088137E4,-1.1858189E5,7.412078E4,-4.0384848E4,1.03329664E5,1.6491638E5,2.0848025E5,1.4963352E4,-2.2017791E4,-5.939075E3,-1.3806511E4,-4.1870303E3,-4.7075E2,-9.701828E3,7.0929126E3,2.1602532E3,-5.459062E3,-1.2656229E4,-4.5765034E3,-1.7871351E3,-2.4683125E3,3.6925793E3,7.1381914E3,-4.786933E3,-5.959232E3,2.1409366E2,-4.772816E3,-1.5431471E4,2.7391719E3,5.894701E3,5.737544E3,-2.7267522E3,5.345757E3,-5.8426187E3,8.407905E3,-6.169575E3,1.0917463E4,7.3067456E3],"categories":[],"categories_nodes":[],"categories_segments":[],"categories_sizes":[],"default_left":[0,0,0,0,0,0,0,0,0,0,0,0,0,0,0,0,0,0,0,0,0,0,0,0,0,0,0,0,0,0,0,0,0,0,0,0,0,0,0,0,0,0,0,0,0,0,0,0,0,0,0,0,0,0,0,0,0,0,0,0,0],"id":18,"left_children":[1,3,5,7,9,11,13,15,17,19,21,23,25,27,29,31,33,35,37,39,41,43,45,47,49,51,53,55,57,59,-1,-1,-1,-1,-1,-1,-1,-1,-1,-1,-1,-1,-1,-1,-1,-1,-1,-1,-1,-1,-1,-1,-1,-1,-1,-1,-1,-1,-1,-1,-1],"loss_changes":[1.3746393E13,2.8093983E12,3.0834672E12,7.534653E11,8.267647E11,1.1484702E12,4.615108E11,2.5971078E11,2.9371885E11,4.7710496E11,1.80885E11,3.0205162E11,5.1591263E11,1.8750636E11,5.705774E10,1.0487595E10,1.0026903E11,2.343785E11,6.0290703E9,2.753799E11,1.9859735E11,6.360519E10,1.3660065E11,1.2039303E11,1.5073273E11,3.329711E11,1.0284678E11,8.7491674E10,1.4037995E11,1.3007061E10,0E0,0E0,0E0,0E0,0E0,0E0,0E0,0E0,0E0,0E0,0E0,0E0,0E0,0E0,0E0,0E0,0E0,0E0,0E0,0E0,0E0,0E0,0E0,0E0,0E0,0E0,0E0,0E0,0E0,0E0,0E0],"parents":[2147483647,0,0,1,1,2,2,3,3,4,4,5,5,6,6,7,7,8,8,9,9,10,10,11,11,12,12,13,13,14,14,15,15,16,16,17,17,18,18,19,19,20,20,21,21,22,22,23,23,24,24,25,25,26,26,27,27,28,28,29,29],"right_children":[2,4,6,8,10,12,14,16,18,20,22,24,26,28,30,32,34,36,38,40,42,44,46,48,50,52,54,56,58,60,-1,-1,-1,-1,-1,-1,-1,-1,-1,-1,-1,-1,-1,-1,-1,-1,-1,-1,-1,-1,-1,-1,-1,-1,-1,-1,-1,-1,-1,-1,-1],"split_conditions":[2.284831E6,1.880126E6,2.435811E6,1.659052E6,2.31274E6,2.090089E6,2.726021E6,7.74699E5,2.203639E6,1.992774E6,1E0,2.417075E6,2.025E3,2.633264E6,2.909267E6,1.9E1,1E0,1.583678E6,2E0,2.025E3,2.02E3,2.160994E6,3.57E2,2E0,1E0,2.594661E6,6E0,3.51E2,1E0,4.3E1,1.4963352E4,-2.2017791E4,-5.939075E3,-1.3806511E4,-4.1870303E3,-4.7075E2,-9.701828E3,7.0929126E3,2.1602532E3,-5.459062E3,-1.2656229E4,-4.5765034E3,-1.7871351E3,-2.4683125E3,3.6925793E3,7.1381914E3,-4.786933E3,-5.959232E3,2.1409366E2,-4.772816E3,-1.5431471E4,2.7391719E3,5.894701E3,5.737544E3,-2.7267522E3,5.345757E3,-5.8426187E3,8.407905E3,-6.169575E3,1.0917463E4,7.3067456E3],"split_indices":[14,14,15,15,15,15,15,15,15,15,6,14,2,14,15,6,7,14,12,2,2,14,3,1,7,14,3,3,10,4,0,0,0,0,0,0,0,0,0,0,0,0,0,0,0,0,0,0,0,0,0,0,0,0,0,0,0,0,0,0,0],"split_type":[0,0,0,0,0,0,0,0,0,0,0,0,0,0,0,0,0,0,0,0,0,0,0,0,0,0,0,0,0,0,0,0,0,0,0,0,0,0,0,0,0,0,0,0,0,0,0,0,0,0,0,0,0,0,0,0,0,0,0,0,0],"sum_hessian":[1.533E3,6.7E2,8.63E2,1.35E2,5.35E2,5.55E2,3.08E2,7E1,6.5E1,4.94E2,4.1E1,1.12E2,4.43E2,2.21E2,8.7E1,1.6E1,5.4E1,6.1E1,4E0,2.18E2,2.76E2,1.8E1,2.3E1,7.2E1,4E1,4E2,4.3E1,9.4E1,1.27E2,7.2E1,1.5E1,1.5E1,1E0,5E1,4E0,8E0,5.3E1,1E0,3E0,2.04E2,1.4E1,1.02E2,1.74E2,1.3E1,5E0,2.1E1,2E0,8E0,6.4E1,3.7E1,3E0,2.79E2,1.21E2,3E0,4E1,9.3E1,1E0,1.26E2,1E0,6E1,1.2E1],"tree_param":{"num_deleted":"0","num_feature":"18","num_nodes":"61","size_leaf_vector":"1"}},{"base_weights":[3.5682266E3,-8.227027E4,1.034635E5,-1.696546E5,-3.930369E4,6.1568535E4,1.603857E5,-3.8032025E5,-1.465113E5,-8.591987E4,-1.1056309E4,6.821516E4,-3.2703384E5,1.2437212E5,1.9257639E5,-2.4547484E4,-1.4024627E4,-1.8400072E5,-9.340443E4,-6.220235E4,-1.4724312E5,-2.6071287E4,5.6090758E4,-8.210127E3,8.389326E4,-2.158619E4,-7.029272E3,1.4710881E5,7.480125E4,1.6117162E5,2.2074844E5,-1.1132573E4,-7.692177E3,-7.507282E3,-1.956828E3,-6.184472E3,-1.8288053E3,-1.3347847E4,-6.1124956E3,-1.8063909E3,2.8097588E3,-6.048901E2,5.549363E3,-1.1467487E3,9.242745E3,-1.0879125E3,4.591385E3,1.002817E4,6.5309893E3,-2.0033397E3,4.4714995E3,7.054404E3,9.756991E3,1.1307117E4,5.8716E3],"categories":[],"categories_nodes":[],"categories_segments":[],"categories_sizes":[],"default_left":[0,0,0,0,0,0,0,0,0,0,0,0,0,0,0,0,0,0,0,0,0,0,0,0,0,0,0,0,0,0,0,0,0,0,0,0,0,0,0,0,0,0,0,0,0,0,0,0,0,0,0,0,0,0,0],"id":19,"left_children":[1,3,5,7,9,11,13,15,17,19,21,23,25,27,29,-1,-1,31,33,35,37,39,41,43,45,-1,-1,47,49,51,53,-1,-1,-1,-1,-1,-1,-1,-1,-1,-1,-1,-1,-1,-1,-1,-1,-1,-1,-1,-1,-1,-1,-1,-1],"loss_changes":[1.3025151E13,3.0608437E12,1.6642228E12,1.2557872E12,7.21965E11,1.0709631E12,3.2036146E11,1.4943361E11,4.6860442E11,2.9190927E11,3.47279E11,4.799698E11,7.594076E10,1.5016814E11,1.0155616E11,0E0,0E0,1.3126074E11,3.11284E11,2.334041E11,1.3791042E11,2.3450576E11,2.3717141E11,2.0039649E11,2.80309E11,0E0,0E0,5.9299594E10,8.2560745E10,2.4997528E10,1.7469014E10,0E0,0E0,0E0,0E0,0E0,0E0,0E0,0E0,0E0,0E0,0E0,0E0,0E0,0E0,0E0,0E0,0E0,0E0,0E0,0E0,0E0,0E0,0E0,0E0],"parents":[2147483647,0,0,1,1,2,2,3,3,4,4,5,5,6,6,7,7,8,8,9,9,10,10,11,11,12,12,13,13,14,14,17,17,18,18,19,19,20,20,21,21,22,22,23,23,24,24,27,27,28,28,29,29,30,30],"right_children":[2,4,6,8,10,12,14,16,18,20,22,24,26,28,30,-1,-1,32,34,36,38,40,42,44,46,-1,-1,48,50,52,54,-1,-1,-1,-1,-1,-1,-1,-1,-1,-1,-1,-1,-1,-1,-1,-1,-1,-1,-1,-1,-1,-1,-1,-1],"split_conditions":[2.395746E6,2.031976E6,2.435811E6,8.67476E5,2.023231E6,1E0,2.636399E6,7.29703E5,1.903886E6,3.5E1,2.317817E6,2.163592E6,2.555082E6,2.025E3,2.775176E6,-2.4547484E4,-1.4024627E4,4.6E1,2.02E3,6.4E1,1.574791E6,4.8E1,1E0,3.42E2,6E1,-2.158619E4,-7.029272E3,2.024E3,2.483683E6,2E0,4E0,-1.1132573E4,-7.692177E3,-7.507282E3,-1.956828E3,-6.184472E3,-1.8288053E3,-1.3347847E4,-6.1124956E3,-1.8063909E3,2.8097588E3,-6.048901E2,5.549363E3,-1.1467487E3,9.242745E3,-1.0879125E3,4.591385E3,1.002817E4,6.5309893E3,-2.0033397E3,4.4714995E3,7.054404E3,9.756991E3,1.1307117E4,5.8716E3],"split_indices":[14,14,15,15,15,10,15,15,15,4,15,15,14,2,14,0,0,3,2,3,15,4,6,3,3,0,0,2,15,6,6,0,0,0,0,0,0,0,0,0,0,0,0,0,0,0,0,0,0,0,0,0,0,0,0],"split_type":[0,0,0,0,0,0,0,0,0,0,0,0,0,0,0,0,0,0,0,0,0,0,0,0,0,0,0,0,0,0,0,0,0,0,0,0,0,0,0,0,0,0,0,0,0,0,0,0,0,0,0,0,0,0,0],"sum_hessian":[1.517E3,8.16E2,7.01E2,2.68E2,5.48E2,4.05E2,2.96E2,2.5E1,2.43E2,2.06E2,3.42E2,3.99E2,6E0,1.42E2,1.54E2,1E1,1.5E1,1.41E2,1.02E2,1.5E2,5.6E1,2.8E2,6.2E1,6.8E1,3.31E2,3E0,3E0,9.6E1,4.6E1,7.6E1,7.8E1,5.9E1,8.2E1,4.9E1,5.3E1,4.3E1,1.07E2,8E0,4.8E1,2.5E2,3E1,2.8E1,3.4E1,6.4E1,4E0,2.3E1,3.08E2,2E1,7.6E1,5E0,4.1E1,5.1E1,2.5E1,7.3E1,5E0],"tree_param":{"num_deleted":"0","num_feature":"18","num_nodes":"55","size_leaf_vector":"1"}},{"base_weights":[-3.4474072E3,-1.0635545E5,6.5795555E4,-3.286628E5,-9.16578E4,1.4763714E4,1.3860153E5,-3.5583944E5,-1.8227058E5,-1.5132752E5,-5.9540402E4,-4.9410258E4,4.4475734E4,1.06225125E5,1.8085353E5,-1.329562E5,-1.83313E4,-1.3788407E3,-1.0021507E4,-1.8856375E5,-1.0248018E5,-6.4803742E4,1.416836E5,7.7708037E3,-8.779146E4,4.8422664E4,-3.2976075E5,5.219432E4,1.1777011E5,1.6062358E5,1.167869E4,-7.939322E3,-2.0323938E3,-1.1678386E4,-8.0044E3,-6.517552E3,4.2646777E2,-5.2785977E3,-2.2566577E3,-2.8076033E3,1.1724602E4,-6.050571E2,8.164552E3,-2.7036882E3,-8.808777E3,-3.7634036E3,2.7873806E3,-1.9627871E4,-3.5342688E3,5.4965425E3,1.8307969E3,6.272324E3,3.2886414E3,8.192796E3,-5.681431E3],"categories":[],"categories_nodes":[],"categories_segments":[],"categories_sizes":[],"default_left":[0,0,0,0,0,0,0,0,0,0,0,0,0,0,0,0,0,0,0,0,0,0,0,0,0,0,0,0,0,0,0,0,0,0,0,0,0,0,0,0,0,0,0,0,0,0,0,0,0,0,0,0,0,0,0],"id":20,"left_children":[1,3,5,7,9,11,13,15,17,19,21,23,25,27,29,31,-1,-1,-1,33,35,37,39,41,43,45,47,49,51,53,-1,-1,-1,-1,-1,-1,-1,-1,-1,-1,-1,-1,-1,-1,-1,-1,-1,-1,-1,-1,-1,-1,-1,-1,-1],"loss_changes":[1.0966259E13,1.992394E12,3.4161426E12,8.632166E10,1.1063557E12,1.0356498E12,4.9924905E11,2.5783173E10,1.6946151E10,3.4991086E11,4.1164354E11,3.7816687E11,5.639665E11,1.29214185E11,1.36326414E11,6.98708E8,0E0,0E0,0E0,1.087022E11,2.7956563E11,2.9275298E11,1.9677535E11,2.1831028E11,2.974246E11,3.3761447E11,3.732816E10,3.1952445E10,6.2797906E10,1.25882335E11,0E0,0E0,0E0,0E0,0E0,0E0,0E0,0E0,0E0,0E0,0E0,0E0,0E0,0E0,0E0,0E0,0E0,0E0,0E0,0E0,0E0,0E0,0E0,0E0,0E0],"parents":[2147483647,0,0,1,1,2,2,3,3,4,4,5,5,6,6,7,7,8,8,9,9,10,10,11,11,12,12,13,13,14,14,15,15,19,19,20,20,21,21,22,22,23,23,24,24,25,25,26,26,27,27,28,28,29,29],"right_children":[2,4,6,8,10,12,14,16,18,20,22,24,26,28,30,32,-1,-1,-1,34,36,38,40,42,44,46,48,50,52,54,-1,-1,-1,-1,-1,-1,-1,-1,-1,-1,-1,-1,-1,-1,-1,-1,-1,-1,-1,-1,-1,-1,-1,-1,-1],"split_conditions":[2.253892E6,9.21897E5,2.354474E6,4.7E1,1.992251E6,2.135322E6,2.627735E6,-1.4E1,5E1,1.891781E6,2.560508E6,-1E0,1E0,2.456148E6,2.800099E6,6E0,-1.83313E4,-1.3788407E3,-1.0021507E4,3.6E1,3.21E2,-5E0,3E0,2.555713E6,3.17E2,2.9E1,4E0,2.284831E6,3.02E2,1E0,1.167869E4,-7.939322E3,-2.0323938E3,-1.1678386E4,-8.0044E3,-6.517552E3,4.2646777E2,-5.2785977E3,-2.2566577E3,-2.8076033E3,1.1724602E4,-6.050571E2,8.164552E3,-2.7036882E3,-8.808777E3,-3.7634036E3,2.7873806E3,-1.9627871E4,-3.5342688E3,5.4965425E3,1.8307969E3,6.272324E3,3.2886414E3,8.192796E3,-5.681431E3],"split_indices":[14,15,15,3,14,15,15,11,3,15,15,11,10,14,15,0,0,0,0,3,3,11,0,14,3,3,0,14,3,10,0,0,0,0,0,0,0,0,0,0,0,0,0,0,0,0,0,0,0,0,0,0,0,0,0],"split_type":[0,0,0,0,0,0,0,0,0,0,0,0,0,0,0,0,0,0,0,0,0,0,0,0,0,0,0,0,0,0,0,0,0,0,0,0,0,0,0,0,0,0,0,0,0,0,0,0,0,0,0,0,0,0,0],"sum_hessian":[1.537E3,6.18E2,9.19E2,3.7E1,5.81E2,5.41E2,3.78E2,3E1,7E0,2.02E2,3.79E2,1.71E2,3.7E2,2.16E2,1.62E2,2E0,2.8E1,1E0,6E0,1.13E2,8.9E1,3.7E2,9E0,6.9E1,1.02E2,3.67E2,3E0,3.9E1,1.77E2,1.2E2,4.2E1,1E0,1E0,4.1E1,7.2E1,7.1E1,1.8E1,1.19E2,2.51E2,3E0,6E0,6.2E1,7E0,7.5E1,2.7E1,2E1,3.47E2,2E0,1E0,7E0,3.2E1,1.53E2,2.4E1,1.19E2,1E0],"tree_param":{"num_deleted":"0","num_feature":"18","num_nodes":"55","size_leaf_vector":"1"}},{"base_weights":[-1.0431605E3,-8.3451875E4,9.00657E4,-3.2581747E5,-6.951929E4,6.1582434E4,1.6330567E5,-4.112522E5,-2.6536128E5,-1.2481138E5,-3.677969E4,6.815136E4,-1.6411494E5,1.3284806E5,1.9334433E5,-3.9872156E3,-4.2803644E5,-1.9815844E3,-1.3612689E4,-1.3773795E5,-8.1800864E3,-4.5700992E4,8.409653E4,-1.1272014E4,8.156748E4,7.2163877E3,-2.8939662E5,1.12201266E5,1.6016361E5,2.0820827E5,8.140497E3,-2.2226756E4,-4.926372E3,7.16325E2,-7.2040405E3,-7.2557515E3,2.5447922E3,-7.1596235E3,-1.9763798E3,5.2389214E3,-7.882429E3,2.966971E3,-2.5378054E3,3.0897786E3,5.980745E3,-7.7779253E3,-1.87501E4,7.6991704E3,4.7160444E3,3.8184187E3,8.737035E3,7.3394062E3,1.1299705E4],"categories":[],"categories_nodes":[],"categories_segments":[],"categories_sizes":[],"default_left":[0,0,0,0,0,0,0,0,0,0,0,0,0,0,0,0,0,0,0,0,0,0,0,0,0,0,0,0,0,0,0,0,0,0,0,0,0,0,0,0,0,0,0,0,0,0,0,0,0,0,0,0,0],"id":21,"left_children":[1,3,5,7,9,11,13,15,17,19,21,23,25,27,29,-1,31,-1,-1,33,35,37,39,41,43,-1,45,47,49,51,-1,-1,-1,-1,-1,-1,-1,-1,-1,-1,-1,-1,-1,-1,-1,-1,-1,-1,-1,-1,-1,-1,-1],"loss_changes":[1.1382385E13,2.6652658E12,1.4919443E12,1.1296676E11,1.360331E12,7.8213166E11,1.5821124E11,5.489243E10,3.277403E10,4.2101323E11,5.1607044E11,5.400895E11,6.214013E11,4.0119173E10,1.1033641E10,0E0,3.774821E10,0E0,0E0,2.4512404E11,2.4198295E11,2.6096108E11,1.8150985E11,2.0932595E11,3.1834112E11,0E0,6.7695084E10,3.1795118E10,3.795786E10,3.56487E10,0E0,0E0,0E0,0E0,0E0,0E0,0E0,0E0,0E0,0E0,0E0,0E0,0E0,0E0,0E0,0E0,0E0,0E0,0E0,0E0,0E0,0E0,0E0],"parents":[2147483647,0,0,1,1,2,2,3,3,4,4,5,5,6,6,7,7,8,8,9,9,10,10,11,11,12,12,13,13,14,14,16,16,19,19,20,20,21,21,22,22,23,23,24,24,26,26,27,27,28,28,29,29],"right_children":[2,4,6,8,10,12,14,16,18,20,22,24,26,28,30,-1,32,-1,-1,34,36,38,40,42,44,-1,46,48,50,52,-1,-1,-1,-1,-1,-1,-1,-1,-1,-1,-1,-1,-1,-1,-1,-1,-1,-1,-1,-1,-1,-1,-1],"split_conditions":[2.368846E6,9.21897E5,2.579257E6,7.29703E5,2.058033E6,1E0,2.748226E6,1E0,-1.4E1,3.23E2,2.38203E6,2.141153E6,7E0,1E0,2.18E2,-3.9872156E3,4E1,-1.9815844E3,-1.3612689E4,9E0,-7E0,1.5E1,3.57E2,-1E0,2.629323E6,7.2163877E3,8E0,1.63E2,-1.3E1,1.54E2,8.140497E3,-2.2226756E4,-4.926372E3,7.16325E2,-7.2040405E3,-7.2557515E3,2.5447922E3,-7.1596235E3,-1.9763798E3,5.2389214E3,-7.882429E3,2.966971E3,-2.5378054E3,3.0897786E3,5.980745E3,-7.7779253E3,-1.87501E4,7.6991704E3,4.7160444E3,3.8184187E3,8.737035E3,7.3394062E3,1.1299705E4],"split_indices":[14,15,15,15,14,10,14,0,11,3,15,15,1,12,3,0,3,0,0,3,11,3,3,11,14,0,1,3,11,3,0,0,0,0,0,0,0,0,0,0,0,0,0,0,0,0,0,0,0,0,0,0,0],"split_type":[0,0,0,0,0,0,0,0,0,0,0,0,0,0,0,0,0,0,0,0,0,0,0,0,0,0,0,0,0,0,0,0,0,0,0,0,0,0,0,0,0,0,0,0,0,0,0,0,0,0,0,0,0],"sum_hessian":[1.514E3,7.95E2,7.19E2,4.2E1,7.53E2,5.19E2,2E2,1.5E1,2.7E1,2.79E2,4.74E2,5.05E2,1.4E1,1.02E2,9.8E1,1E0,1.4E1,1E0,2.6E1,2.51E2,2.8E1,4.42E2,3.2E1,7.3E1,4.32E2,4E0,1E1,6.1E1,4.1E1,6.2E1,3.6E1,1.3E1,1E0,1E1,2.41E2,8E0,2E1,2.5E1,4.17E2,3E1,2E0,2.6E1,4.7E1,2.86E2,1.46E2,5E0,5E0,1.6E1,4.5E1,7E0,3.4E1,1.6E1,4.6E1],"tree_param":{"num_deleted":"0","num_feature":"18","num_nodes":"53","size_leaf_vector":"1"}},{"base_weights":[5.3870087E2,-6.912153E4,8.4965305E4,-1.8792992E5,-4.6958375E4,5.2326598E4,1.318714E5,-2.4085478E5,-9.552648E4,-3.3445523E4,-1.3162834E5,-9.090835E4,5.9612535E4,1.4199278E5,1.2602456E4,2.963025E4,-2.5880355E5,3.5466336E4,-1.2588652E5,-6.2656332E4,-2.9418635E3,-1.7156983E5,-9.453228E4,-1.3989498E5,-2.7932225E4,6.3633887E4,-1.3835045E5,1.452794E5,-5.336645E4,-7.515339E4,1.342004E5,-3.1102E2,5.2220874E3,-1.56038545E4,-9.6388E3,3.2661511E3,-1.2824719E3,-8.719019E3,-3.1555076E3,-5.541169E3,-2.0540898E3,1.3235867E2,-1.0258836E4,3.5042813E2,-9.224615E3,-7.8578335E3,-1.7620748E3,-9.10866E3,-3.7150457E3,-5.135236E2,-4.6722E3,1.8985647E3,4.0707961E3,7.4069097E3,-1.6993564E4,1.8282938E3,7.5025063E3,7.2947124E3,-6.9827593E3,-5.296439E3,7.1402504E1,7.662618E3,3.3654688E3],"categories":[],"categories_nodes":[],"categories_segments":[],"categories_sizes":[],"default_left":[0,0,0,0,0,0,0,0,0,0,0,0,0,0,0,0,0,0,0,0,0,0,0,0,0,0,0,0,0,0,0,0,0,0,0,0,0,0,0,0,0,0,0,0,0,0,0,0,0,0,0,0,0,0,0,0,0,0,0,0,0,0,0],"id":22,"left_children":[1,3,5,7,9,11,13,15,17,19,21,23,25,27,29,31,33,35,37,39,41,43,45,47,49,51,53,55,57,59,61,-1,-1,-1,-1,-1,-1,-1,-1,-1,-1,-1,-1,-1,-1,-1,-1,-1,-1,-1,-1,-1,-1,-1,-1,-1,-1,-1,-1,-1,-1,-1,-1],"loss_changes":[8.898213E12,2.1740727E12,1.0402723E12,6.12749E11,7.964906E11,4.2807774E11,3.3621646E11,4.0576745E11,1.9933512E11,5.388929E11,1.2602153E11,5.7792184E10,3.1608996E11,1.734072E11,2.5551703E11,1.6741915E10,2.1068828E11,1.992264E10,1.1076554E11,3.165542E11,3.3624166E11,1.0513836E11,1.8754014E11,1.6969581E10,1.0610815E10,1.6985883E11,5.1221535E11,1.2624855E11,1.0634466E11,3.3146798E10,2.4287314E9,0E0,0E0,0E0,0E0,0E0,0E0,0E0,0E0,0E0,0E0,0E0,0E0,0E0,0E0,0E0,0E0,0E0,0E0,0E0,0E0,0E0,0E0,0E0,0E0,0E0,0E0,0E0,0E0,0E0,0E0,0E0,0E0],"parents":[2147483647,0,0,1,1,2,2,3,3,4,4,5,5,6,6,7,7,8,8,9,9,10,10,11,11,12,12,13,13,14,14,15,15,16,16,17,17,18,18,19,19,20,20,21,21,22,22,23,23,24,24,25,25,26,26,27,27,28,28,29,29,30,30],"right_children":[2,4,6,8,10,12,14,16,18,20,22,24,26,28,30,32,34,36,38,40,42,44,46,48,50,52,54,56,58,60,62,-1,-1,-1,-1,-1,-1,-1,-1,-1,-1,-1,-1,-1,-1,-1,-1,-1,-1,-1,-1,-1,-1,-1,-1,-1,-1,-1,-1,-1,-1,-1,-1],"split_conditions":[2.381453E6,1.885832E6,2.648872E6,4.8E1,1E0,5.2E1,4.7E1,5E0,5.3E1,2.184096E6,2.6E2,2.546404E6,1E0,1E0,3.43E2,1E0,1.674639E6,2E0,1E1,-5E0,1E0,4E0,-5E0,1.2E1,9E0,2.491894E6,3E0,3E0,7E0,1E1,2.775176E6,-3.1102E2,5.2220874E3,-1.56038545E4,-9.6388E3,3.2661511E3,-1.2824719E3,-8.719019E3,-3.1555076E3,-5.541169E3,-2.0540898E3,1.3235867E2,-1.0258836E4,3.5042813E2,-9.224615E3,-7.8578335E3,-1.7620748E3,-9.10866E3,-3.7150457E3,-5.135236E2,-4.6722E3,1.8985647E3,4.0707961E3,7.4069097E3,-1.6993564E4,1.8282938E3,7.5025063E3,7.2947124E3,-6.9827593E3,-5.296439E3,7.1402504E1,7.662618E3,3.3654688E3],"split_indices":[14,14,14,3,9,3,4,3,3,14,3,14,10,10,3,12,14,0,1,11,10,3,11,3,11,14,0,1,1,11,14,0,0,0,0,0,0,0,0,0,0,0,0,0,0,0,0,0,0,0,0,0,0,0,0,0,0,0,0,0,0,0,0],"split_type":[0,0,0,0,0,0,0,0,0,0,0,0,0,0,0,0,0,0,0,0,0,0,0,0,0,0,0,0,0,0,0,0,0,0,0,0,0,0,0,0,0,0,0,0,0,0,0,0,0,0,0,0,0,0,0,0,0,0,0,0,0,0,0],"sum_hessian":[1.511E3,8.28E2,6.83E2,1.29E2,6.99E2,4.04E2,2.79E2,8.1E1,4.8E1,6.04E2,9.5E1,1.9E1,3.85E2,2.57E2,2.2E1,5E0,7.6E1,9E0,3.9E1,3.08E2,2.96E2,4.4E1,5.1E1,1E1,9E0,3.78E2,7E0,2.53E2,4E0,1.3E1,9E0,4E0,1E0,4E1,3.6E1,6E0,3E0,2.1E1,1.8E1,9.4E1,2.14E2,2.89E2,7E0,3E0,4.1E1,2.4E1,2.7E1,5E0,5E0,8E0,1E0,1.56E2,2.22E2,3E0,4E0,1.1E1,2.42E2,1E0,3E0,9E0,4E0,6E0,3E0],"tree_param":{"num_deleted":"0","num_feature":"18","num_nodes":"63","size_leaf_vector":"1"}},{"base_weights":[7.5096796E2,-9.220397E4,6.2888508E4,-1.8596456E5,-6.569694E4,2.8075654E4,1.2593421E5,-3.0966662E5,-1.550353E5,-7.853008E4,2.2296887E4,-3.1931125E4,4.9707223E4,9.395734E4,1.5563877E5,-3.670613E5,-1.2155321E4,-1.6524228E5,9.23596E4,-8.252946E4,7.767684E4,-5.4677426E4,5.758036E4,1.6278112E4,-6.853675E4,1.9588318E4,7.013591E4,7.091749E4,1.1447723E5,1.3151161E5,1.9580425E5,-3.4974375E3,-1.9385629E4,1.4483625E3,-8.757171E3,6.969113E3,2.2879187E3,-4.3347593E3,3.142921E3,5.6721655E3,-2.7757417E3,-3.3190232E3,1.6883291E3,1.624236E3,1.2090515E4,-4.7321994E2,7.6435874E3,-1.7559834E3,-8.511479E3,-7.956736E3,1.3917539E3,3.7472466E3,-7.296846E3,2.6130137E3,5.311096E3,7.1068384E3,4.336522E3,-9.058167E2,6.7252847E3,1.0603909E4,7.7353657E3],"categories":[],"categories_nodes":[],"categories_segments":[],"categories_sizes":[],"default_left":[0,0,0,0,0,0,0,0,0,0,0,0,0,0,0,0,0,0,0,0,0,0,0,0,0,0,0,0,0,0,0,0,0,0,0,0,0,0,0,0,0,0,0,0,0,0,0,0,0,0,0,0,0,0,0,0,0,0,0,0,0],"id":23,"left_children":[1,3,5,7,9,11,13,15,17,19,21,23,25,27,29,31,-1,33,35,37,39,41,43,45,47,49,51,53,55,57,59,-1,-1,-1,-1,-1,-1,-1,-1,-1,-1,-1,-1,-1,-1,-1,-1,-1,-1,-1,-1,-1,-1,-1,-1,-1,-1,-1,-1,-1,-1],"loss_changes":[8.866168E12,1.5162514E12,2.0156808E12,4.685027E11,5.4491415E11,7.726235E11,2.959805E11,1.0090185E10,2.9302823E11,2.6879748E11,1.7153545E11,2.7994286E11,2.6750766E11,6.752554E10,1.3705465E11,4.6508933E10,0E0,2.089002E11,4.5786644E9,2.5376483E11,5.8699534E10,2.2942704E10,1.909497E11,2.4406899E11,2.9986655E11,2.6678123E11,2.8110304E11,4.5826015E10,5.13719E10,5.0820678E10,7.9872655E9,0E0,0E0,0E0,0E0,0E0,0E0,0E0,0E0,0E0,0E0,0E0,0E0,0E0,0E0,0E0,0E0,0E0,0E0,0E0,0E0,0E0,0E0,0E0,0E0,0E0,0E0,0E0,0E0,0E0,0E0],"parents":[2147483647,0,0,1,1,2,2,3,3,4,4,5,5,6,6,7,7,8,8,9,9,10,10,11,11,12,12,13,13,14,14,15,15,17,17,18,18,19,19,20,20,21,21,22,22,23,23,24,24,25,25,26,26,27,27,28,28,29,29,30,30],"right_children":[2,4,6,8,10,12,14,16,18,20,22,24,26,28,30,32,-1,34,36,38,40,42,44,46,48,50,52,54,56,58,60,-1,-1,-1,-1,-1,-1,-1,-1,-1,-1,-1,-1,-1,-1,-1,-1,-1,-1,-1,-1,-1,-1,-1,-1,-1,-1,-1,-1,-1,-1],"split_conditions":[2.253892E6,1.880126E6,2.419762E6,8.67476E5,2.213969E6,2.135322E6,2.636399E6,7.29703E5,2.203639E6,1E0,-5E0,-1E0,2.454485E6,2.633264E6,2.833198E6,1E0,-1.2155321E4,5E0,-1E0,3.52E2,1.8E1,4E0,2.705415E6,-4E0,1.1E1,2.9E1,3.1E1,2E0,7E0,2.355913E6,2.16E2,-3.4974375E3,-1.9385629E4,1.4483625E3,-8.757171E3,6.969113E3,2.2879187E3,-4.3347593E3,3.142921E3,5.6721655E3,-2.7757417E3,-3.3190232E3,1.6883291E3,1.624236E3,1.2090515E4,-4.7321994E2,7.6435874E3,-1.7559834E3,-8.511479E3,-7.956736E3,1.3917539E3,3.7472466E3,-7.296846E3,2.6130137E3,5.311096E3,7.1068384E3,4.336522E3,-9.058167E2,6.7252847E3,1.0603909E4,7.7353657E3],"split_indices":[14,14,15,15,15,15,15,15,15,13,11,11,14,14,14,0,0,3,11,3,12,6,15,11,1,3,6,6,1,14,3,0,0,0,0,0,0,0,0,0,0,0,0,0,0,0,0,0,0,0,0,0,0,0,0,0,0,0,0,0,0],"split_type":[0,0,0,0,0,0,0,0,0,0,0,0,0,0,0,0,0,0,0,0,0,0,0,0,0,0,0,0,0,0,0,0,0,0,0,0,0,0,0,0,0,0,0,0,0,0,0,0,0,0,0,0,0,0,0,0,0,0,0,0,0],"sum_hessian":[1.533E3,6.14E2,9.19E2,1.34E2,4.8E2,5.93E2,3.26E2,2.5E1,1.09E2,4.19E2,6.1E1,1.57E2,4.36E2,1.59E2,1.67E2,1.1E1,1.4E1,1.05E2,4E0,4.09E2,1E1,1.9E1,4.2E1,6.8E1,8.9E1,1.77E2,2.59E2,7.7E1,8.2E1,1.07E2,6E1,1E0,1E1,5E0,1E2,1E0,3E0,3.98E2,1.1E1,8E0,2E0,1.7E1,2E0,3.8E1,4E0,5.8E1,1E1,6.8E1,2.1E1,7E0,1.7E2,2.54E2,5E0,5.2E1,2.5E1,3.9E1,4.3E1,2E0,1.05E2,4E1,2E1],"tree_param":{"num_deleted":"0","num_feature":"18","num_nodes":"61","size_leaf_vector":"1"}},{"base_weights":[-1.2717885E3,-6.6221195E4,7.6725234E4,-1.2790977E5,-2.7984578E4,4.102725E4,1.2609734E5,-2.7098675E5,-1.0881908E5,-6.5277387E4,-6.8950015E3,-7.990643E4,5.1940703E4,1.0559001E5,1.6270216E5,-3.4992956E5,-2.1909702E5,-1.1929248E5,2.1331943E4,-4.9290066E4,-1.7180417E5,-1.3726517E4,1.204964E5,-1.3390575E4,-1.6326714E5,6.2308395E4,-4.3893168E4,8.886329E3,9.83913E4,1.4344319E5,2.0280547E5,-1.8271086E4,-4.100597E3,-1.1627519E4,-5.9386763E3,1.2895312E3,-6.226738E3,2.6601199E3,-6.7692847E3,-1.8907728E3,-7.3143643E3,-1.0088808E4,-4.971564E3,-1.1474656E3,2.4346714E3,-2.744097E3,8.0998804E3,3.4089387E3,-4.3163604E3,1.0370751E3,-9.658583E3,-1.7939501E3,3.4143884E3,6.59675E2,-5.9822007E3,4.0786868E3,5.9612524E3,7.440518E3,-6.0748125E3,1.0425422E4,7.9291254E2],"categories":[],"categories_nodes":[],"categories_segments":[],"categories_sizes":[],"default_left":[0,0,0,0,0,0,0,0,0,0,0,0,0,0,0,0,0,0,0,0,0,0,0,0,0,0,0,0,0,0,0,0,0,0,0,0,0,0,0,0,0,0,0,0,0,0,0,0,0,0,0,0,0,0,0,0,0,0,0,0,0],"id":24,"left_children":[1,3,5,7,9,11,13,15,17,19,21,23,25,27,29,31,33,35,37,39,41,43,45,47,49,51,53,-1,55,57,59,-1,-1,-1,-1,-1,-1,-1,-1,-1,-1,-1,-1,-1,-1,-1,-1,-1,-1,-1,-1,-1,-1,-1,-1,-1,-1,-1,-1,-1,-1],"loss_changes":[7.771045E12,1.9707045E12,1.223279E12,8.445719E11,4.069515E11,5.399909E11,2.0201446E11,7.489559E10,3.8967155E11,3.1000723E11,2.905857E11,1.863373E11,3.7333873E11,8.1178526E10,5.0460623E10,2.398919E10,6.1213245E9,2.0324077E11,1.170854E11,1.7700097E11,3.1996969E10,1.8303435E11,1.3262376E11,1.2487356E11,8.654704E10,2.003024E11,1.6157996E11,0E0,5.1589415E10,1.2188385E11,2.9744169E10,0E0,0E0,0E0,0E0,0E0,0E0,0E0,0E0,0E0,0E0,0E0,0E0,0E0,0E0,0E0,0E0,0E0,0E0,0E0,0E0,0E0,0E0,0E0,0E0,0E0,0E0,0E0,0E0,0E0,0E0],"parents":[2147483647,0,0,1,1,2,2,3,3,4,4,5,5,6,6,7,7,8,8,9,9,10,10,11,11,12,12,13,13,14,14,15,15,16,16,17,17,18,18,19,19,20,20,21,21,22,22,23,23,24,24,25,25,26,26,28,28,29,29,30,30],"right_children":[2,4,6,8,10,12,14,16,18,20,22,24,26,28,30,32,34,36,38,40,42,44,46,48,50,52,54,-1,56,58,60,-1,-1,-1,-1,-1,-1,-1,-1,-1,-1,-1,-1,-1,-1,-1,-1,-1,-1,-1,-1,-1,-1,-1,-1,-1,-1,-1,-1,-1,-1],"split_conditions":[2.395746E6,2.058033E6,2.449389E6,9.21897E5,2.018002E6,1.999651E6,2.775176E6,7.29703E5,2.203639E6,2.024E3,2.551534E6,1E0,2.025E3,2.024E3,2.800099E6,3.7E1,4.8E1,9E0,1E0,3.02E2,1.992774E6,3.26E2,2.123988E6,1E0,2.412403E6,5.8E1,5E0,8.886329E3,2.641296E6,1E0,2.92E2,-1.8271086E4,-4.100597E3,-1.1627519E4,-5.9386763E3,1.2895312E3,-6.226738E3,2.6601199E3,-6.7692847E3,-1.8907728E3,-7.3143643E3,-1.0088808E4,-4.971564E3,-1.1474656E3,2.4346714E3,-2.744097E3,8.0998804E3,3.4089387E3,-4.3163604E3,1.0370751E3,-9.658583E3,-1.7939501E3,3.4143884E3,6.59675E2,-5.9822007E3,4.0786868E3,5.9612524E3,7.440518E3,-6.0748125E3,1.0425422E4,7.9291254E2],"split_indices":[14,14,15,15,15,15,14,15,15,2,15,12,2,2,15,3,3,3,7,3,15,3,14,6,14,3,11,0,15,10,3,0,0,0,0,0,0,0,0,0,0,0,0,0,0,0,0,0,0,0,0,0,0,0,0,0,0,0,0,0,0],"split_type":[0,0,0,0,0,0,0,0,0,0,0,0,0,0,0,0,0,0,0,0,0,0,0,0,0,0,0,0,0,0,0,0,0,0,0,0,0,0,0,0,0,0,0,0,0,0,0,0,0,0,0,0,0,0,0,0,0,0,0,0,0],"sum_hessian":[1.532E3,8.36E2,6.96E2,3.19E2,5.17E2,4.05E2,2.91E2,3.6E1,2.83E2,1.86E2,3.31E2,3.3E1,3.72E2,1.89E2,1.02E2,1.2E1,2.4E1,2.62E2,2.1E1,1.63E2,2.3E1,3.15E2,1.6E1,1.9E1,1.4E1,3.36E2,3.6E1,1.5E1,1.74E2,7.2E1,3E1,1.1E1,1E0,2E1,4E0,9E0,2.53E2,1.8E1,3E0,1.47E2,1.6E1,1.5E1,8E0,2.75E2,4E1,3E0,1.3E1,9E0,1E1,2E0,1.2E1,1.9E1,3.17E2,2.1E1,1.5E1,9.9E1,7.5E1,7.1E1,1E0,2.9E1,1E0],"tree_param":{"num_deleted":"0","num_feature":"18","num_nodes":"61","size_leaf_vector":"1"}},{"base_weights":[-3.7286646E2,-8.102288E4,6.1751113E4,-2.9546012E5,-7.057478E4,-2.3887062E4,8.1242375E4,-3.5082366E5,-1.1799259E4,-1.1480937E5,-4.3836953E4,-2.7650334E5,-1.7422361E4,5.144379E4,1.2116402E5,-2.953222E3,-3.6872325E5,-1.2736741E5,-1.818075E4,-3.3660867E4,-1.0898126E5,-1.1364375E3,-1.7675932E4,-1.08408516E5,1.0406865E3,-1.8242088E5,5.5958613E4,9.872489E4,1.516601E5,-1.9306162E4,-3.9980813E3,-9.928721E2,-6.6827915E3,6.4267197E3,-3.102136E3,-1.9520188E3,2.8526526E3,-7.837404E3,-3.1198933E3,-7.9663706E3,-3.1721907E3,-2.4809092E3,6.8478845E2,-1.0577194E4,-3.168396E3,2.9268953E3,-8.0530454E3,5.7480693E3,3.2849075E3,7.137216E3,1.0671358E4],"categories":[],"categories_nodes":[],"categories_segments":[],"categories_sizes":[],"default_left":[0,0,0,0,0,0,0,0,0,0,0,0,0,0,0,0,0,0,0,0,0,0,0,0,0,0,0,0,0,0,0,0,0,0,0,0,0,0,0,0,0,0,0,0,0,0,0,0,0,0,0],"id":25,"left_children":[1,3,5,7,9,11,13,15,-1,17,19,21,23,25,27,-1,29,31,33,35,37,-1,-1,39,41,43,45,47,49,-1,-1,-1,-1,-1,-1,-1,-1,-1,-1,-1,-1,-1,-1,-1,-1,-1,-1,-1,-1,-1,-1],"loss_changes":[7.7609477E12,1.4892196E12,1.4624877E12,1.9285934E10,7.5664956E11,2.6137611E11,8.419583E11,5.1334873E10,0E0,2.913429E11,2.6348592E11,7.014305E10,2.688939E11,4.4310967E11,1.9305595E11,0E0,3.444284E10,1.420249E11,1.9459585E11,1.7302612E11,1.1037691E11,0E0,0E0,5.1709575E10,8.65859E10,1.4332314E10,2.350104E11,8.78978E10,3.947338E10,0E0,0E0,0E0,0E0,0E0,0E0,0E0,0E0,0E0,0E0,0E0,0E0,0E0,0E0,0E0,0E0,0E0,0E0,0E0,0E0,0E0,0E0],"parents":[2147483647,0,0,1,1,2,2,3,3,4,4,5,5,6,6,7,7,9,9,10,10,11,11,12,12,13,13,14,14,16,16,17,17,18,18,19,19,20,20,23,23,24,24,25,25,26,26,27,27,28,28],"right_children":[2,4,6,8,10,12,14,16,-1,18,20,22,24,26,28,-1,30,32,34,36,38,-1,-1,40,42,44,46,48,50,-1,-1,-1,-1,-1,-1,-1,-1,-1,-1,-1,-1,-1,-1,-1,-1,-1,-1,-1,-1,-1,-1],"split_conditions":[2.281882E6,8.67476E5,2.163592E6,7.29703E5,2.01673E6,1.434435E6,2.629323E6,1E0,-1.1799259E4,3.24E2,1E0,1E0,4.4E1,2E0,2.636399E6,-2.953222E3,4E1,1E0,1.2E1,2.38203E6,2.56E2,-1.1364375E3,-1.7675932E4,1.999651E6,1.828932E6,2E1,1E0,2.32E2,2.909267E6,-1.9306162E4,-3.9980813E3,-9.928721E2,-6.6827915E3,6.4267197E3,-3.102136E3,-1.9520188E3,2.8526526E3,-7.837404E3,-3.1198933E3,-7.9663706E3,-3.1721907E3,-2.4809092E3,6.8478845E2,-1.0577194E4,-3.168396E3,2.9268953E3,-8.0530454E3,5.7480693E3,3.2849075E3,7.137216E3,1.0671358E4],"split_indices":[14,15,15,15,14,15,14,0,0,3,9,0,3,1,15,0,3,0,1,15,3,0,0,15,15,3,10,3,15,0,0,0,0,0,0,0,0,0,0,0,0,0,0,0,0,0,0,0,0,0,0],"split_type":[0,0,0,0,0,0,0,0,0,0,0,0,0,0,0,0,0,0,0,0,0,0,0,0,0,0,0,0,0,0,0,0,0,0,0,0,0,0,0,0,0,0,0,0,0,0,0,0,0,0,0],"sum_hessian":[1.547E3,6.73E2,8.74E2,3E1,6.43E2,1.62E2,7.12E2,1.3E1,1.7E1,2.41E2,4.02E2,3E0,1.59E2,4.09E2,3.03E2,1E0,1.2E1,2.13E2,2.8E1,3.49E2,5.3E1,1E0,2E0,2.6E1,1.33E2,7E0,4.02E2,1.77E2,1.26E2,1.1E1,1E0,1.2E1,2.01E2,6E0,2.2E1,3.3E2,1.9E1,2.5E1,2.8E1,1.1E1,1.5E1,2.6E1,1.07E2,5E0,2E0,3.98E2,4E0,1.17E2,6E1,1.13E2,1.3E1],"tree_param":{"num_deleted":"0","num_feature":"18","num_nodes":"51","size_leaf_vector":"1"}},{"base_weights":[-2.9270415E3,-1.0303694E5,4.177287E4,-1.7408398E5,-7.417805E4,2.6361345E3,9.657632E4,-2.4838322E5,-1.3326752E5,-6.743171E4,-1.9482023E5,1.0468333E4,-8.100822E4,7.412829E4,1.4758952E5,-2.539669E5,7.207188E1,3.938352E4,-1.4414269E5,-1.2361305E5,-5.2895848E4,-1.1374889E4,-9.6995125E4,4.8046523E3,1.21046805E5,-1.4582058E5,-2.4577018E4,1.2874912E5,5.453376E4,1.3769855E5,1.1338843E4,-1.6218005E4,-1.1229357E4,4.60285E3,-4.9837344E2,-7.853611E3,-2.2616863E3,-4.5344585E3,-1.2289995E4,-1.1490599E3,-3.6376394E3,-6.4945347E3,-1.0401333E3,3.68394E2,-1.0992566E4,1.103873E4,6.336402E2,3.3047668E3,-8.4045E3,4.5156842E2,-4.0196797E3,-6.878339E2,7.032518E3,8.902087E2,3.9535012E3,4.2890522E3,7.3660234E3],"categories":[],"categories_nodes":[],"categories_segments":[],"categories_sizes":[],"default_left":[0,0,0,0,0,0,0,0,0,0,0,0,0,0,0,0,0,0,0,0,0,0,0,0,0,0,0,0,0,0,0,0,0,0,0,0,0,0,0,0,0,0,0,0,0,0,0,0,0,0,0,0,0,0,0,0,0],"id":26,"left_children":[1,3,5,7,9,11,13,15,17,19,21,23,25,27,29,31,-1,33,35,37,39,-1,41,43,45,47,49,51,53,55,-1,-1,-1,-1,-1,-1,-1,-1,-1,-1,-1,-1,-1,-1,-1,-1,-1,-1,-1,-1,-1,-1,-1,-1,-1,-1,-1],"loss_changes":[6.7121845E12,9.363936E11,2.2239322E12,3.702388E11,2.5626136E11,3.9785025E11,4.8376263E11,6.4533823E10,1.7090635E11,2.507043E11,3.2277463E10,3.4700447E11,1.8660301E11,3.1620006E11,7.1377355E10,2.0218905E10,0E0,1.6514505E10,9.9039445E10,2.35172E11,1.4801948E11,0E0,1.2336296E10,3.0624154E11,2.8901556E11,1.243718E11,5.512731E10,1.3591878E11,2.0046243E11,4.6808695E10,0E0,0E0,0E0,0E0,0E0,0E0,0E0,0E0,0E0,0E0,0E0,0E0,0E0,0E0,0E0,0E0,0E0,0E0,0E0,0E0,0E0,0E0,0E0,0E0,0E0,0E0,0E0],"parents":[2147483647,0,0,1,1,2,2,3,3,4,4,5,5,6,6,7,7,8,8,9,9,10,10,11,11,12,12,13,13,14,14,15,15,17,17,18,18,19,19,20,20,22,22,23,23,24,24,25,25,26,26,27,27,28,28,29,29],"right_children":[2,4,6,8,10,12,14,16,18,20,22,24,26,28,30,32,-1,34,36,38,40,-1,42,44,46,48,50,52,54,56,-1,-1,-1,-1,-1,-1,-1,-1,-1,-1,-1,-1,-1,-1,-1,-1,-1,-1,-1,-1,-1,-1,-1,-1,-1,-1,-1],"split_conditions":[2.045614E6,4.7E1,2.321965E6,1.282646E6,2.025E3,1E0,2.672648E6,3.4E1,2E0,1.473015E6,1.999651E6,3.54E2,2.02E3,2.024E3,2.909267E6,7.29703E5,7.207188E1,4E0,1.999651E6,6E0,7E0,-1.1374889E4,1E0,1E0,-1E0,3E0,3E0,5E0,2.499204E6,1.33E2,1.1338843E4,-1.6218005E4,-1.1229357E4,4.60285E3,-4.9837344E2,-7.853611E3,-2.2616863E3,-4.5344585E3,-1.2289995E4,-1.1490599E3,-3.6376394E3,-6.4945347E3,-1.0401333E3,3.68394E2,-1.0992566E4,1.103873E4,6.336402E2,3.3047668E3,-8.4045E3,4.5156842E2,-4.0196797E3,-6.878339E2,7.032518E3,8.902087E2,3.9535012E3,4.2890522E3,7.3660234E3],"split_indices":[15,3,15,15,2,9,15,6,4,15,15,3,2,2,15,15,0,3,15,1,1,0,6,10,11,3,11,1,15,3,0,0,0,0,0,0,0,0,0,0,0,0,0,0,0,0,0,0,0,0,0,0,0,0,0,0,0],"split_type":[0,0,0,0,0,0,0,0,0,0,0,0,0,0,0,0,0,0,0,0,0,0,0,0,0,0,0,0,0,0,0,0,0,0,0,0,0,0,0,0,0,0,0,0,0,0,0,0,0,0,0,0,0,0,0,0,0],"sum_hessian":[1.498E3,4.62E2,1.036E3,1.32E2,3.3E2,6.05E2,4.31E2,4.5E1,8.7E1,3.14E2,1.6E1,5.54E2,5.1E1,3.01E2,1.3E2,4.4E1,1E0,5E0,8.2E1,6.3E1,2.51E2,1.1E1,5E0,5.28E2,2.6E1,2.3E1,2.8E1,7.8E1,2.23E2,1.18E2,1.2E1,1E1,3.4E1,2E0,3E0,7.2E1,1E1,5.1E1,1.2E1,1.01E2,1.5E2,3E0,2E0,5.23E2,5E0,1.3E1,1.3E1,2E0,2.1E1,1.8E1,1E1,6E0,7.2E1,9E1,1.33E2,2E1,9.8E1],"tree_param":{"num_deleted":"0","num_feature":"18","num_nodes":"57","size_leaf_vector":"1"}},{"base_weights":[-2.6205974E3,-7.353392E4,5.0827773E4,-1.4396577E5,-4.5589977E4,2.9842068E4,1.2209335E5,-2.0528795E5,-9.505261E4,-5.7159617E4,3.3147125E4,-2.5823555E4,4.87014E4,1.0360992E5,1.6587819E5,-1.4705513E4,-1.7045927E5,-1.2332956E5,-1.8364096E4,-6.447491E4,4.7034668E4,1.7848464E5,-1.2961411E4,-5.717316E3,-1.18387266E5,6.0559453E4,-1.7059336E4,1.0611392E5,-1.05585E4,1.2912351E5,1.86342E5,-9.4136045E3,-4.7969346E3,2.3029375E3,-6.5359604E3,3.7385397E2,-3.974548E3,-2.1601172E3,-6.026646E3,-4.6155875E2,8.34219E3,1.2217097E4,3.415657E3,6.612952E2,-5.68979E3,-3.8242712E3,6.396823E2,-1.2800177E4,-8.9989276E2,2.2151345E3,4.33972E3,6.5485854E3,-1.441566E3,4.7840903E3,6.642532E3,-5.1632314E3,2.7382542E3,-1.021575E3,7.1824062E3,1.0427942E4,6.635066E3],"categories":[],"categories_nodes":[],"categories_segments":[],"categories_sizes":[],"default_left":[0,0,0,0,0,0,0,0,0,0,0,0,0,0,0,0,0,0,0,0,0,0,0,0,0,0,0,0,0,0,0,0,0,0,0,0,0,0,0,0,0,0,0,0,0,0,0,0,0,0,0,0,0,0,0,0,0,0,0,0,0],"id":27,"left_children":[1,3,5,7,9,11,13,15,17,19,21,23,25,27,29,-1,31,33,35,37,39,41,43,45,47,49,51,53,55,57,59,-1,-1,-1,-1,-1,-1,-1,-1,-1,-1,-1,-1,-1,-1,-1,-1,-1,-1,-1,-1,-1,-1,-1,-1,-1,-1,-1,-1,-1,-1],"loss_changes":[5.8823404E12,1.3061886E12,1.3199257E12,5.4738525E11,4.3824467E11,7.203819E11,1.4548153E11,2.0663212E11,2.2976653E11,3.216372E11,4.1779397E11,3.2315592E11,4.00288E11,4.228671E10,1.956302E10,0E0,6.42376E10,1.0365488E11,4.7982055E10,4.6105926E11,1.902927E11,9.214221E10,1.28252985E11,1.8961649E11,4.2366416E11,1.812537E11,1.41443E11,2.6616398E10,2.9878882E10,5.5068426E10,1.4034403E10,0E0,0E0,0E0,0E0,0E0,0E0,0E0,0E0,0E0,0E0,0E0,0E0,0E0,0E0,0E0,0E0,0E0,0E0,0E0,0E0,0E0,0E0,0E0,0E0,0E0,0E0,0E0,0E0,0E0,0E0],"parents":[2147483647,0,0,1,1,2,2,3,3,4,4,5,5,6,6,7,7,8,8,9,9,10,10,11,11,12,12,13,13,14,14,16,16,17,17,18,18,19,19,20,20,21,21,22,22,23,23,24,24,25,25,26,26,27,27,28,28,29,29,30,30],"right_children":[2,4,6,8,10,12,14,16,18,20,22,24,26,28,30,-1,32,34,36,38,40,42,44,46,48,50,52,54,56,58,60,-1,-1,-1,-1,-1,-1,-1,-1,-1,-1,-1,-1,-1,-1,-1,-1,-1,-1,-1,-1,-1,-1,-1,-1,-1,-1,-1,-1,-1,-1],"split_conditions":[2.279609E6,1.69884E6,2.579257E6,4.6E1,3.26E2,2.163592E6,2.833198E6,8.18691E5,2.09055E6,6E0,1.2E1,3.27E2,2.025E3,5.2E1,4E0,-1.4705513E4,2.02749E6,1E0,6E0,5E0,6E0,3E0,3.58E2,4.4E1,1.828932E6,2.594661E6,2E0,6E0,3E0,1.54E2,2.16E2,-9.4136045E3,-4.7969346E3,2.3029375E3,-6.5359604E3,3.7385397E2,-3.974548E3,-2.1601172E3,-6.026646E3,-4.6155875E2,8.34219E3,1.2217097E4,3.415657E3,6.612952E2,-5.68979E3,-3.8242712E3,6.396823E2,-1.2800177E4,-8.9989276E2,2.2151345E3,4.33972E3,6.5485854E3,-1.441566E3,4.7840903E3,6.642532E3,-5.1632314E3,2.7382542E3,-1.021575E3,7.1824062E3,1.0427942E4,6.635066E3],"split_indices":[14,15,15,3,3,15,14,15,14,0,1,3,2,4,0,0,14,0,1,0,1,0,3,3,15,14,4,0,0,3,3,0,0,0,0,0,0,0,0,0,0,0,0,0,0,0,0,0,0,0,0,0,0,0,0,0,0,0,0,0,0],"split_type":[0,0,0,0,0,0,0,0,0,0,0,0,0,0,0,0,0,0,0,0,0,0,0,0,0,0,0,0,0,0,0,0,0,0,0,0,0,0,0,0,0,0,0,0,0,0,0,0,0,0,0,0,0,0,0,0,0,0,0,0,0],"sum_hessian":[1.55E3,6.66E2,8.84E2,1.88E2,4.78E2,6.84E2,2E2,8.2E1,1.06E2,4.17E2,6.1E1,1.73E2,5.11E2,1.43E2,5.7E1,2.1E1,6.1E1,7.7E1,2.9E1,3.9E2,2.7E1,1.4E1,4.7E1,1.43E2,3E1,4.33E2,7.8E1,1.4E2,3E0,2.3E1,3.4E1,4.8E1,1.3E1,3E0,7.4E1,2.1E1,8E0,2.84E2,1.06E2,1.9E1,8E0,8E0,6E0,3.8E1,9E0,2.9E1,1.14E2,1.2E1,1.8E1,2.69E2,1.64E2,5E0,7.3E1,1.04E2,3.6E1,1E0,2E0,2E0,2.1E1,2.2E1,1.2E1],"tree_param":{"num_deleted":"0","num_feature":"18","num_nodes":"61","size_leaf_vector":"1"}},{"base_weights":[2.21321E3,-5.7720062E4,5.7786266E4,-1.1947042E5,-2.9626148E4,3.0273578E4,9.8871266E4,-1.470334E5,-7.342614E4,-6.4537547E4,-4.2105767E3,3.666399E4,-2.17215E5,8.324863E4,1.4278269E5,-1.9140477E5,-1.1976292E5,-1.1792051E5,-1.0111581E4,-3.9174668E4,-1.0816678E5,-5.204232E4,1.5778455E4,-6.3907836E4,4.5096746E4,